tree
version=v4
num_class=1
num_tree_per_iteration=1
label_index=0
max_feature_idx=58
objective=binary sigmoid:1
feature_names=open high low close volume ret_1 ret_5 ret_10 ret_21 ret_63 ret_126 vol_5 z_5 vol_10 z_10 vol_21 z_21 vol_63 z_63 vol_126 z_126 rsi_14 macd macd_signal v_z_5 v_ma_ratio_5 v_z_21 v_ma_ratio_21 v_z_63 v_ma_ratio_63 v_z_126 v_ma_ratio_126 ^VIX__close ^VIX__ret1 ^VIX__z20 EURUSD=X__close EURUSD=X__ret1 EURUSD=X__z20 EURGBP=X__close EURGBP=X__ret1 EURGBP=X__z20 EURCHF=X__close EURCHF=X__ret1 EURCHF=X__z20 EURJPY=X__close EURJPY=X__ret1 EURJPY=X__z20 ^TNX__close ^TNX__ret1 ^TNX__z20 SPY__close SPY__ret1 SPY__z20 ^STOXX50E__close ^STOXX50E__ret1 ^STOXX50E__z20 EZU__close EZU__ret1 EZU__z20
feature_infos=[-0.7842662086512906:6.6628287931299708] [-0.78652876184405141:6.5760020391895058] [-0.78224674054076371:6.5282830049137717] [-0.78440759359744339:6.5913565473087896] [-0.35867779886240231:26.178490460511703] [-28.074278195556282:17.933493437886799] [-13.03385143304059:9.3981076783431252] [-9.8477446642043542:8.151038934462516] [-7.1873407793833426:7.9249640011956455] [-5.1944011616757582:5.7968778518666584] [-5.360385167157232:3.9384129285350085] [-1.2165970861826523:19.594074569216705] [-1.8193036830711482:1.6530821444114978] [-1.3445515134313104:14.630120106069068] [-2.4940859593595541:2.2488637637552009] [-1.4121955198399574:10.413230974249277] [-3.4125232503287708:3.0883876389523617] [-1.4603081681076282:6.6164980807637317] [-4.8267333999266473:4.3612659097071136] [-1.518891400768706:5.2796390382175558] [-4.3273231213104495:5.4341511450979869] [-3.1541301894481966:2.7667583370663786] [-9.2499260320088492:10.112497078887325] [-8.5308617611000024:9.4853336967326847] [-1.8733962471532344:1.9280900735615196] [-2.840445663515677:10.605140154077496] [-2.7928637769686149:4.1368572590244321] [-1.7821716915855557:23.933702541660402] [-2.9579864077021796:7.3966134570517212] [-1.4104955558905357:40.623567156242885] [-2.8550885674158653:10.219549026654796] [-1.2048694637606172:43.414001481485045] [-1.2871991039360309:8.5061859527082753] [-4.172959212031814:13.329644495930159] [-2.3240709701901952:3.3775123849483721] [-2.9017640431160525:2.4088896926549084] [-5.9785962897733764:5.9917522335625515] [-2.4489837455681323:2.4684081230127695] [-4.0231919444051458:4.3626931578524939] [-18.585918199522133:20.64188750692027] [-2.7663681762315098:3.0811812862155139] [-1.703444335663554:2.0542157130466965] [-6.0867976811070026:5.3965614550412413] [-2.5630951468659462:2.884831807743681] [-1.5622138155225695:2.3562031277994833] [-9.2289300527929026:3.9524840679493463] [-2.6266447464526097:2.7289280352086887] [-1.8125625812942108:1.936675769712757] [-9.320695635968983:15.78638234976173] [-2.7501471325117133:2.712235712692161] [-1.6078942224950752:2.2969595156065954] [-9.4365567619326001:8.9613987176588701] [-3.3818328609390167:1.9614064033036143] [-2.1989865691128787:2.4749728925391135] [-10.553730425028592:7.8091564985878126] [-2.8755173788270985:2.464232803106543] [-2.6980425372425918:2.8546840740221473] [-9.6043461936538677:6.6842046064072305] [-2.9000947944147084:2.7798947979758695]
tree_sizes=3435 3486 3503 3497 3499 3501 3512 3492 3494 3494 3493 3513 3493 3505 3511 3511 3498 3514 3498 3507 3506 3503 3517 3512 3498 3513 3512 3490 3502 3518 3499 3506 3502 3495 3499 3515 3513 3514 3497 3494 3511 3506 3509 3525 3497 3491 3514 3512 3498 3503 3505 3508 3506 3506 3500 3530 3512 3528 3511 3502 3500 3515 3516 3507 3511 3504 3516 3493 3503 3492 3493 3511 3523 3505 3504 3510 3521 3501 3515 3511 3500 3522 3520 3528 3525 3500 3530 3503 3515 3522 3500 3516 3499 3491 3505 3515 3523 3504 3508 3508 3531 3520 3500 3503 3494 3510 3529 3517 3514 3497 3525 3515 3491 3512 3512 3520 3512 3510 3527 3519 3519 3510 3527 3527 3510 3518 3514 3510 3506 3507 3499 3496 3506 3510 3501 3499 3498 3515 3502 3523 3510 3511 3511 3503 3526 3497 3505 3505 3517 3501 3528 3529 3520 3510 3512 3516 3502 3520 3499 3508 3509 3522 3525 3507 3504 3504 3504 3501 3511 3507 3509 3513 3519 3516 3517 3520 3524 3501 3503 3497 3508 3518 3511 3523 3496 3514 3512 3522 3516 3520 3515 3506 3509 3536 3520 3513 3509 3504 3521 3520 3502 3509 3509 3503 3505 3514 3524 3523 3516 3490 3516 3513 3522 3518 3510 3499 3521 3508 3516 3515 3522 3521 3513 3517 3502 3516 3518 3510 3502 3517 3518 3515 3494 3517 3495 3506 3502 3516 3514 3517 3499 3507 3526 3505 3525 3518 3501 3525 3491 3527 3504 3512 3515 3509 3513 3489 3517 3514 3525 3508 3510 3506 3506 3499 3504 3509 3499 3507 3497 3513 3517 3512 3503 3494 3516 3525 3511 3519 3527 3518 3513 3520 3499 3512 3527 3521 3507 3525 3503 3520 3504 3517 3518 3515 3493 3503 3514 3501 3508 3509 3519 3526 3513 3500 3506 3495 3527 3503 3505 3524 3494 3495 3501 3503 3520 3483 3503 3524 3507 3519 3512 3521 3508 3517 3523 3513 3516 3513 3505 3511 3505 3514 3525 3522 3516 3510 3511 3511 3514 3517 3498 3503 3517 3508 3524 3511 3515 3530 3510 3515 3512 3516 3518 3513 3509 3507 3531 3517 3531 3491 3513 3510 3507 3526 3523 3516 3520 3525 3513 3510 3532 3503 3543 3506 3509 3516 3525 3526 3520 3517 3510 3516 3517 3523 3509 3518 3505 3523 3505 3522 3532 3521 3488 3516 3504 3506 3515 3509 3525 3524 3526 3500 3510 3503 3509 3492 3507 3510 3518 3519 3516 3504 3515 3518 3501 3515 3515 3527 3516 3514 3517 3507 3512 3526 3510 3517 3517 3512 3510 3522 3515 3497 3507 3511 3504 3510 3507 3491 3504 3534 3505 3516 3499 3513 3521 3504 3529 3513 3520 3526 3516 3538 3500 3518 3508 3517 3523 3502 3520 3518 3500 3510 3519 3497 3504 3529 3518 3496 3510 3501 3504 3517 3520 3503 3519 3531 3524 3529 3497 3503 3510 3527 3516 3513 3523 3505 3502 3516 3515 3520 3512 3518 3525 3510 3506 3508 3494 3507 3516 3516 3517 3512 3514 3499 3508 3514 3501 3510 3542 3515 3525 3500 3510 3520 3524 3511 3503 3491 3515 3507 3509 3521 3529 3517 3508 3514 3514 3521 3506 3516 3514 3503 3505 3514 3514 3503 3529 3524 3521 3506 3524 3517 3498 3504 3526 3487 3519 3506 3504 3518 3513 3502 3531 3514 3517 3507 3502 3508 3492 3497 3508 3532 3530 3508 3511 3512 3503 3506 3518 3510 3501 3480 3510 3492 3500 3509 3523 3499 3508 3524 3511 3529 3511 3527 3508 3525 3500 3522 3514 3514 3508 3524 3514 3519 3503 3512 3538 3497 3513 3522 3527 3526 3512 3512 3519 3527 3514 3514 3527 3500 3526 3504 3507 3504 3520 3500 3524 3514 3497 3513 3517 3505 3514 3519 3518 3517 3509 3507 3511 3523 3519 3506 3522 3533 3510 3502 3510 3511 3485 3522 3525 3524 3510 3493 3507 3506 3521 3508 3498 3522 3501 3518 3533 3512 3508 3504 3507 3517 3505 3501 3513 3505 3514 3510 3513 3508 3516 3518 3507 3513 3503 3523 3509 3502 3516 3497 3500 3519 3515 3487 3526 3498 3523 3518 3522 3522 3511 3507 3513 3538 3523 3531 3513 3512 3526 3508 3506 3522 3526 3509 3528 3521 3507 3503 3531 3521 3507 3521 3519 3509 3513 3517 3519 3526 3490 3539 3510 3516 3506 3516 3528 3508 3493 3517 3514 3529 3503 3509 3504 3515 3505 3521 3509 3510 3507 3511 3517 3509 3510 3512 3524 3515 3501 3500 3523 3521 3500 3512 3504 3523 3515 3516 3515 3521 3519 3498 3535 3508 3538 3507 3499 3505 3497 3515 3504 3513 3505 3522 3519 3512 3510 3510 3515 3496 3535 3524 3514 3516 3541 3502 3516 3514 3497 3506 3521 3510 3492 3514 3522 3514 3506 3511 3502 3513 3507 3514 3522 3513 3521 3512

Tree=0
num_leaves=31
num_cat=0
split_feature=50 41 44 4 19 50 52 2 53 49 41 6 19 4 53 2 4 1 19 4 47 10 47 47 40 22 11 22 47 50
split_gain=107.945 57.4398 80.6817 69.4825 40.279 52.5397 59.2317 47.6125 44.8812 40.3086 38.6157 37.9485 37.5807 36.8214 36.2815 56.9554 41.9113 41.8785 35.2041 33.9437 32.4507 32.325 31.872 31.4223 28.9216 28.5219 31.0957 33.0938 27.4792 40.6521
threshold=-0.8834653229443975 -1.507195366773187 -0.61501814900272911 -0.31483025562747807 -0.34630606342447851 0.60162493168653619 -0.34339935316094866 -0.45086740591383995 0.5024066280953563 0.2167547625007121 -1.3037136586922489 -0.093805900482378135 -0.078462596958719127 -0.3545023063704108 -0.16402668192529021 0.14495312055932549 -0.23499479376544527 -0.18803176454199974 -0.83322439079974109 -0.24800530195623852 1.4451573893866227 -0.10720186268091657 0.18733745529728851 1.0000000180025095e-35 -1.2064773558211417 0.085715435424576311 -0.5361145244124782 -0.10295462814924232 0.28965020655045576 0.35558668846106373
decision_type=2 2 2 2 2 2 2 2 2 2 2 2 2 2 2 2 2 2 2 2 2 2 2 2 2 2 2 2 2 2
left_child=11 3 25 -2 14 6 8 12 28 23 -7 24 -8 -12 18 16 17 21 22 -17 -15 -16 -4 -9 -1 26 27 -3 29 -6
right_child=1 2 4 -5 5 10 7 9 -10 -11 13 -13 -14 20 15 19 -18 -19 -20 -21 -22 -23 -24 -25 -26 -27 -28 -29 -30 -31
leaf_value=0.067716475913990645 0.069634383876475137 0.057308607321891455 0.091556577669755418 0.093319266864285016 0.096255598711956686 0.068032129194284169 0.054293312422203054 0.076725884089435939 0.097559219947246242 0.045980192902764623 0.076976824128359114 0.07660035195904992 0.079247418067975958 0.046486265127121187 0.097241634834366514 0.07377838841279051 0.09561936863689495 0.062576697609241158 0.052755540874207432 0.058292053915639304 0.069436932528603681 0.073974959945452182 0.061194626838413549 0.056491843015481297 0.088102555955415537 0.07112173661436938 0.083744484206016517 0.079599126028958911 0.066871806224795313 0.068492123498761645
leaf_weight=67.158696383237839 212.71081531047821 91.375772774219513 50.930758595466614 225.94282612204552 86.382561147212982 267.63614320755005 66.659375220537186 115.09352800250053 74.898174405097961 165.52496543526649 51.92940092086792 919.99924227595329 219.45165100693703 324.80841633677483 91.625433355569839 350.77311679720879 142.30653136968613 121.3350425362587 145.55211892724037 194.98491403460503 69.155981034040451 121.3350425362587 65.161411732435226 163.02835962176323 596.93845000863075 503.81505316495895 602.93030396103859 154.04057869315147 257.64971995353699 95.620002657175064
leaf_count=269 852 366 204 905 346 1072 267 461 300 663 208 3685 879 1301 367 1405 570 486 583 781 277 486 261 653 2391 2018 2415 617 1032 383
internal_value=0.0737265 0.0716042 0.0706117 0.0819174 0.0680466 0.0653436 0.0690962 0.0636272 0.0768752 0.0575286 0.0588773 0.080572 0.0731996 0.0535064 0.0721846 0.0747502 0.0822811 0.0763641 0.0623284 0.0681556 0.0504107 0.0842952 0.0747009 0.0647703 0.0860115 0.0767597 0.0801037 0.0711376 0.0731231 0.0819193
internal_weight=0 5032.66 4594 438.654 3241.84 1957.84 1244.31 729.758 514.55 443.647 713.53 1584.1 286.111 445.894 1284 1022.36 476.602 334.296 261.644 545.758 393.964 212.96 116.092 278.122 664.097 1352.16 848.347 245.416 439.652 182.003
internal_count=26503 20158 18401 1757 12985 7842 4984 2923 2061 1777 2858 6345 1146 1786 5143 4095 1909 1339 1048 2186 1578 853 465 1114 2660 5416 3398 983 1761 729
is_linear=0
shrinkage=1


Tree=1
num_leaves=31
num_cat=0
split_feature=50 15 41 3 47 15 32 3 56 3 38 56 46 56 34 47 56 3 4 56 17 4 19 19 3 3 50 28 3 56
split_gain=104.354 93.0998 59.2362 53.9718 55.8201 75.3168 47.0378 44.064 42.0924 46.29 41.8891 55.3526 39.9257 38.9425 35.8529 31.3212 29.3918 44.3282 53.7198 39.3776 41.9142 38.8898 31.9191 29.3078 29.273 39.3714 28.1097 27.7924 27.6792 26.6898
threshold=0.12696281870941178 -0.078945013611236028 -1.507195366773187 -0.7032798485807793 -0.61613039801442082 -0.3651409685363064 1.1335179356305101 -0.50446650666043202 0.74949444938970611 -0.63988201468377959 -0.71690654320755842 0.58369368001020983 0.5235426238151214 0.11817653585789002 0.92832874172291924 0.12386184222027667 0.45774913484765611 0.28599176130031606 -0.24131518949006608 0.15643818135422516 -0.33952602107869184 -0.24800530195623852 -0.097031421781650237 -0.51211218900322486 -0.76528078771621433 -0.77215784106688468 -0.8258706795769778 0.066874556864952098 0.13333994835029692 -0.24929478151220308
decision_type=2 2 2 2 2 2 2 2 2 2 2 2 2 2 2 2 2 2 2 2 2 2 2 2 2 2 2 2 2 2
left_child=3 2 -2 4 24 -6 7 8 13 -10 -9 -12 -13 -3 -5 26 19 18 23 20 -4 -19 -22 -18 25 -1 -16 -26 -20 -8
right_child=1 6 16 14 5 -7 29 10 9 -11 11 12 -14 -15 15 -17 17 21 28 -21 22 -23 -24 -25 27 -27 -28 -29 -30 -31
leaf_value=0.023047291582211211 0.015035810172048997 -0.0073546080070777025 0.0097809482921220603 5.6145296379106396e-05 -0.013308848700397304 0.014390671604149018 0.021145531280324637 -0.023723129951085872 -0.032841976478698916 0.00037663587485157568 -0.019945176690625586 -0.011089112424084835 0.0090916926675889947 0.019233281223353049 0.020410641241748059 -0.0047301169379799076 0.010137647767461172 0.00052622848600280333 0.026552897829438846 -0.017617654058967733 -0.028967606972643997 -0.01946718162573631 0.0029550617556750808 -0.0075385779499321064 0.039003046681126856 -0.0067649369972488591 0.0049089211350613155 0.011015444724362151 0.002021080080536026 -0.0039417563586855034
leaf_weight=90.850484356284142 222.86742889881134 88.133589491248131 156.51742272078991 2327.86285841465 145.79091128706932 208.67109194397926 57.902759373188019 314.67344409227371 61.184412896633148 87.630449593067169 282.94743221998215 193.03118981420994 154.30530424416065 102.60654629766941 200.3975523263216 121.33149109780788 140.2813870459795 267.88585624098778 138.26043155789375 196.23127809166908 55.188275277614594 124.89351250231266 51.439975962042809 196.52098549902439 97.33726242184639 65.140949591994286 224.65742413699627 53.911226764321327 59.442320689558983 93.865458965301514
leaf_count=364 893 353 627 9325 584 836 232 1260 245 351 1133 773 618 411 803 486 562 1073 554 786 221 500 206 787 390 261 900 216 238 376
internal_value=0 -0.0040977 0.000858955 0.00347254 0.0111639 0.00297115 -0.00963596 -0.0114993 -0.00218854 -0.0139046 -0.0148159 -0.0102172 -0.00212194 0.007074 0.00168554 0.00856405 -0.00146542 0.00161195 0.00720633 -0.00762776 1.14373e-05 -0.00599594 -0.0141248 -0.000135664 0.020417 0.0107745 0.0123697 0.0296988 0.0194088 0.00599872
internal_weight=0 3045.81 1609.53 3535.95 661.702 354.462 1436.28 1284.51 339.555 148.815 944.957 630.284 347.336 190.74 2874.25 546.386 1386.66 927.284 534.505 459.377 263.146 392.779 106.628 336.802 307.24 155.991 425.055 151.248 197.703 151.768
internal_count=26364 12199 6447 14165 2651 1420 5752 5144 1360 596 3784 2524 1391 764 11514 2189 5554 3714 2141 1840 1054 1573 427 1349 1231 625 1703 606 792 608
is_linear=0
shrinkage=0.03


Tree=2
num_leaves=31
num_cat=0
split_feature=44 22 35 44 37 44 3 15 32 47 47 11 9 4 22 1 46 35 50 44 15 38 32 9 4 32 10 13 3 19
split_gain=110.602 73.7282 47.6044 51.9605 44.7262 43.1518 36.3392 59.6063 57.7926 40.1367 39.0099 34.7747 33.6697 32.1623 29.7218 28.5209 28.4957 26.8096 26.6428 29.6857 26.631 26.3111 26.0588 35.2343 25.6761 22.6526 29.8248 26.441 22.6331 21.7722
threshold=-0.56446520488761875 0.049926406337689334 1.004957045891788 -0.23010304253918246 -0.23282735592384241 -1.208894597449458 -0.51036304479092842 -0.026466417855527821 0.7593586516362173 1.3720768100027534 0.98871739664679104 -0.0079104680269421902 -1.0370478039217683 -0.31946554783618331 -0.29529584842623358 -0.58842122904151128 0.1841768812206652 -1.2931877324616137 1.7677734904396103 1.5180890270370437 0.22526667593420738 0.1524065846548196 1.1634772285290937 1.1546268074679176 -0.22091178365673983 -0.51757624278246606 -0.45039505400479068 -0.2051642090777476 -0.18111066746026469 0.93700765728138735
decision_type=2 2 2 2 2 2 2 2 2 2 2 2 2 2 2 2 2 2 2 2 2 2 2 2 2 2 2 2 2 2
left_child=1 5 6 4 14 21 -2 10 9 20 25 29 -10 -6 -4 -3 -11 -12 19 -19 -9 -1 23 -17 -5 -8 27 -27 -28 -7
right_child=2 15 3 24 13 11 7 8 12 16 17 -13 -14 -15 -16 22 -18 18 -20 -21 -22 -23 -24 -25 -26 26 28 -29 -30 -31
leaf_value=0.028478427261256815 0.00056656033865405372 -0.023452531039167245 -0.0092518986022411404 0.0076886209872922906 -0.00027372411687439871 0.0016819917958214858 -0.017900887916792736 -0.0085646339782888704 0.012542050044832805 -0.018045718406248221 -0.013440220455310525 0.013304458344216443 -0.0092666523157390462 -0.017305569371199522 0.012345948314218671 -0.00035260617898584426 0.006344916850865928 0.0068211052729764566 0.014220940799662282 -0.0073238840102039749 -0.023310372231796207 0.0070448908674525853 0.010240311542880591 -0.019429844098409185 0.028711549796115392 -0.024405305231598614 0.017850495763518284 -0.00044596359592770867 -0.003030939983725881 0.018708816825325079
leaf_weight=141.18125814199448 844.72071997821331 49.921719312667847 71.417176619172096 168.21532355248928 222.42623479664326 813.84590782225132 154.05970792472363 155.38778918981552 110.35022206604481 65.453479945659637 86.386781692504883 455.34013530611992 137.33416742086411 176.21563781797886 233.8739404976368 472.82016679644585 106.62675559520721 295.29134379327297 163.91442182660103 235.47952619194984 456.95405732095242 86.053085878491402 142.80450727045536 101.8700433075428 74.846350654959679 100.89566951990128 50.179014682769775 68.432213306427002 299.60621815919876 68.866987064480782
leaf_count=566 3384 200 286 674 891 3261 617 622 442 262 346 1825 550 706 937 1894 427 1183 657 943 1829 345 572 408 300 404 201 274 1200 276
internal_value=0 0.00499159 -0.0031215 0.00280267 -0.00134875 0.00871707 -0.00480737 -0.0066306 -0.0121273 -0.0160942 -0.00270126 0.00661465 0.000505639 -0.00792359 0.00722586 -0.00261444 -0.00318003 0.00185853 0.00384344 0.000535816 -0.0196682 0.020688 -0.00101231 -0.00387267 0.0146105 -0.00796662 -0.00487573 -0.0150129 0.000173991 0.00310828
internal_weight=0 2332.7 4278.07 946.995 703.933 1565.29 3331.07 2486.35 1032.11 784.422 1454.24 1338.05 247.684 398.642 305.291 767.416 172.08 781.072 694.685 530.771 612.342 227.234 717.495 574.69 243.062 673.173 519.113 169.328 349.785 882.713
internal_count=26482 9347 17135 3794 2820 6273 13341 9957 4132 3140 5825 5362 992 1597 1223 3074 689 3129 2783 2126 2451 911 2874 2302 974 2696 2079 678 1401 3537
is_linear=0
shrinkage=0.03


Tree=3
num_leaves=31
num_cat=0
split_feature=50 32 15 41 38 41 41 3 3 19 49 4 49 6 4 35 43 3 10 21 10 4 10 37 4 41 50 56 23 4
split_gain=110.458 56.8717 70.7848 64.9028 48.4284 59.4363 42.9347 67.3213 52.9936 52.9059 35.3093 36.1154 34.991 35.1155 34.4276 34.9534 33.0515 31.3063 30.8067 30.5996 30.0128 29.8317 40.7557 50.1687 28.9222 40.5954 28.4716 27.9355 31.28 32.7926
threshold=-0.8834653229443975 0.85056821428847973 0.32812634423097159 -1.4975743486444399 -0.40509013667059041 -1.5017367486016207 1.2206360388433917 -0.49452701789453196 -0.59916031033822492 -0.23224521960194175 -0.64535254395911668 -0.33924844753475769 0.34276366381353512 -0.21103716161432853 -0.31483025562747807 -0.57006329547525991 -0.80916892208209601 -0.19856354928050882 0.11001264567639292 -0.34264449859733542 -0.60651990300868086 -0.27641384773297623 0.29792776888251582 0.1267431758761173 0.60748402687600278 0.55253064745471259 0.53714359980835125 -0.25567187520928097 0.36620076389352785 -0.33820181500984042
decision_type=2 2 2 2 2 2 2 2 2 2 2 2 2 2 2 2 2 2 2 2 2 2 2 2 2 2 2 2 2 2
left_child=12 2 3 14 5 -4 7 8 21 17 11 -11 13 -1 -2 -16 19 -9 -19 -3 -18 22 23 26 25 27 -5 -6 29 -29
right_child=1 16 4 6 24 -7 -8 9 -10 10 -12 -13 -14 -15 15 -17 20 18 -20 -21 -22 -23 -24 -25 -26 -27 -28 28 -30 -31
leaf_value=0.011173956718300593 0.0010777648017132643 0.0037522496613525552 0.0020037843497625971 -0.01798021290147175 -0.025975282420922431 -0.024437506456050518 -0.015680794070267089 0.010349868079485675 0.021723276099658226 -0.012612498065613318 -0.016148848128241366 0.011654216408863405 0.01271139678887028 -0.00066000662063988289 0.0036657618779292762 0.032363796614401662 -0.0011699171596402504 -0.007356072444354789 0.0027361321710091375 -0.01791743543608678 0.012404840829208777 0.01397433299180945 -0.023010596483101501 0.01460143453688428 0.015917148950973726 0.0054282410882913164 0.0068598030211693356 -0.014946604279546322 -0.0210279128503402 0.010392348394061906
leaf_weight=340.42142489552498 148.9928542971611 143.52377532422543 98.88731050491333 107.55427581071854 96.161170199513435 322.59895192086697 212.74150769412518 180.93362514674664 151.01969440281391 113.12201923131943 452.33754920959473 98.66342656314373 582.92765232920647 649.49284212291241 64.824496850371361 93.215914145112038 215.18338638544083 618.80785232782364 479.32680813968182 92.616260558366776 449.45868982374668 128.19673895835876 66.147498771548271 147.98810718953609 49.915045216679573 161.52443034946918 62.401081576943398 72.441140994429588 91.938725858926773 108.09739185869694
leaf_count=1365 597 575 396 431 385 1291 852 725 605 453 1811 395 2337 2603 260 374 862 2478 1920 371 1801 514 265 593 200 647 250 290 368 433
internal_value=0 -0.00218806 -0.00367835 -0.00144806 -0.0105982 -0.0182832 -0.00288036 -0.00180757 0.00641307 -0.00462294 -0.0114585 -0.00129943 0.00690889 0.00344528 0.0115391 0.0210659 0.0046238 -0.00104294 -0.00295847 -0.00494209 0.00803398 0.00173336 -0.00247935 0.00208227 -0.0049057 -0.00699658 -0.00892451 -0.0124405 -0.00728187 9.62895e-05
internal_weight=0 5028.62 4127.84 3126.27 1001.56 421.486 2819.24 2606.5 663.307 1943.19 664.123 211.785 1572.84 989.914 307.033 158.04 900.782 1279.07 1098.13 236.14 664.642 512.288 384.091 317.943 580.078 530.163 169.955 368.638 272.477 180.539
internal_count=26447 20142 16533 12523 4010 1687 11292 10440 2658 7782 2659 848 6305 3968 1231 634 3609 5123 4398 946 2663 2053 1539 1274 2323 2123 681 1476 1091 723
is_linear=0
shrinkage=0.03


Tree=4
num_leaves=31
num_cat=0
split_feature=50 32 41 4 1 17 38 41 34 41 38 47 44 1 58 17 52 17 10 53 22 47 41 41 53 47 43 8 38 2
split_gain=102.96 52.7012 48.4876 69.5806 48.7814 73.0852 68.7745 42.2256 38.8649 30.0017 29.9283 33.6962 30.2658 29.8633 29.6206 29.5262 26.8608 25.6236 31.5113 27.0612 41.644 33.3853 22.5311 23.3013 22.3663 21.6083 21.5373 21.2919 21.1586 20.5921
threshold=-0.8834653229443975 0.85056821428847973 -1.507195366773187 -0.31483025562747807 -0.50164541053822465 -0.24837817062918285 -0.71690654320755842 1.250727811664714 0.99287054094552885 -1.4526062781725682 1.0457346105356022 -0.89091307325127955 -0.26712830292485917 -0.2048073064386311 1.2906346868482779 -0.96848905290886511 1.0583335198034665 0.28260172318161908 -0.58162628174981279 -0.17956025282323304 -0.06780756443608596 0.28965020655045576 -1.3920119269078637 0.48982133949809203 -0.42487559034532035 0.12386184222027667 -0.11041412796158455 -0.019368263169458073 -1.1676682582357338 -0.56612652330027136
decision_type=2 2 2 2 2 2 2 2 2 2 2 2 2 2 2 2 2 2 2 2 2 2 2 2 2 2 2 2 2 2
left_child=8 2 3 -2 7 13 9 29 10 -7 11 -1 16 15 22 -6 -13 18 24 20 21 -19 -8 -24 -3 -10 -25 -20 -5 -4
right_child=1 17 4 28 5 6 14 -9 25 -11 -12 12 -14 -15 -16 -17 -18 19 27 -21 -22 -23 23 26 -26 -27 -28 -29 -30 -31
leaf_value=0.021073247169591705 -0.0061933371572155376 -0.023381280091778419 0.00096596621382347364 0.0035276147803038143 -0.0099580341588488119 -0.0084139125962338791 0.0092498498444029201 -0.016959936151139252 0.020796547864567912 -0.030299107420477384 -0.00615583993630291 0.0042420925596015737 0.016205924829666409 -0.003880872831315327 0.010433878582286041 0.014136015252762934 -0.012092218178378985 0.032564336777120208 0.012074692836301958 -0.0056436526738213432 0.0022731941824329885 0.0069129666200037423 -0.013777999411641975 0.0067413348718107389 0.00099788337366563248 -0.00021679060533905464 -0.011710936904396636 -0.0033056643340869316 0.025597526751191646 0.012435844813962954
leaf_weight=122.32837498188019 186.2203912883997 70.928609639406204 775.55240301787853 56.845345750451088 58.157745197415352 82.461263731122017 50.949566543102264 100.40570767223835 228.91489055752754 214.20211993157864 193.12673029303551 700.92593948543072 162.33872747421265 1220.6315947920084 69.446669533848763 168.42712409794331 99.062781974673271 114.19524125754833 162.65560890734196 82.131454288959503 172.90056875348091 79.396738842129707 579.46219825744629 112.85463537275791 60.430835232138634 54.132322013378143 105.3920232206583 153.45178110897541 134.18983127176762 167.42189706861973
leaf_count=491 746 284 3108 228 233 330 204 402 919 857 774 2810 651 4888 278 675 397 458 652 329 693 318 2319 452 242 217 422 615 539 671
internal_value=0 -0.00194486 -0.00339092 0.00679333 -0.00443557 -0.00658726 -0.0119976 0.00105928 0.006874 -0.0244561 0.00460851 0.00654459 0.00459837 -0.00202028 -0.00786121 0.0078703 0.00215687 0.00462572 -0.000462828 0.0096503 0.0131075 0.022483 -0.00941066 -0.0106527 -0.0125405 0.0168438 -0.00223204 0.00467321 0.0192878 0.00305726
internal_weight=0 4978.71 4082.62 377.256 3705.36 2661.98 1214.77 1043.38 1560.83 296.663 1277.78 1084.66 962.327 1447.22 918.105 226.585 799.989 896.091 447.467 448.624 366.493 193.592 848.658 797.709 131.359 283.047 218.247 316.107 191.035 942.974
internal_count=26202 19943 16352 1513 14839 10658 4862 4181 6259 1187 5123 4349 3858 5796 3675 908 3207 3591 1793 1798 1469 776 3397 3193 526 1136 874 1267 767 3779
is_linear=0
shrinkage=0.03


Tree=5
num_leaves=31
num_cat=0
split_feature=50 32 41 4 38 17 4 4 35 3 49 55 2 53 23 0 35 15 14 41 47 44 56 50 8 47 35 8 26 8
split_gain=106.009 54.5583 58.5601 56.7139 51.7075 74.5325 49.8378 48.1296 45.5592 39.6526 37.8589 35.711 35.6955 42.5859 54.5426 31.1104 32.0826 30.959 30.5605 28.2693 29.7364 36.5806 28.1095 27.8801 25.2096 31.3302 25.1988 24.8026 26.1647 23.755
threshold=-0.8834653229443975 0.85056821428847973 -1.507195366773187 -0.31243913326107758 -0.72433969279996735 -0.34623873698062385 -0.25730175576664377 -0.26838535347644438 1.8139979330957188 -0.51036304479092842 0.34276366381353512 0.93831756531831323 0.14495312055932549 0.21648333439990505 0.36620076389352785 -0.19807678809536453 0.062353904026393007 0.61934141376674645 0.22003360757824938 1.3206035804701772 -1.5498904068087318 -0.37774396500352475 1.2325479922105496 0.60162493168653619 1.0769513471856194 -1.6334109481551844 -0.57006329547525991 -1.1895128455734356 -0.35547496794636929 0.072507167213935755
decision_type=2 2 2 2 2 2 2 2 2 2 2 2 2 2 2 2 2 2 2 2 2 2 2 2 2 2 2 2 2 2
left_child=10 2 3 -2 5 6 -4 8 19 -7 18 24 13 15 23 17 -17 -9 -1 20 -6 29 -14 -15 25 -3 -5 -27 -29 -22
right_child=1 11 4 26 7 9 -8 12 -10 -11 -12 -13 22 14 -16 16 -18 -19 -20 -21 21 -23 -24 -25 -26 27 -28 28 -30 -31
leaf_value=0.0083258593885291703 -0.0040705671895760378 0.015358892832768891 0.012801512705847885 0.0048763793047807702 -0.025698016624978743 -0.0043189659157836582 -0.014637740819121829 0.0070443943767258101 0.014775859639102126 -0.024488542680681093 0.012994909253769057 0.020893316248355158 -0.015935426480626982 0.02572879547384832 -0.0068479130515799779 -0.03079653389868699 1.422536771819327e-05 -0.016926981529922933 -0.0021509338807839768 -0.023126757625974666 0.0044181527521884173 -0.0088997595834177708 0.0093833902577521149 0.0062695700706797549 -0.014028596619028479 0.011487450135479549 0.027268388966749848 -0.012689029968714851 0.0026863398594250865 -0.0057495440135094025
leaf_weight=522.13241364061832 186.00638930499554 167.5096729695797 141.04210796952248 75.499382108449936 60.189421609044075 122.62241946160793 95.668425694108009 302.88559609651566 89.873839631676674 326.60447138547897 579.26311552524567 103.01813943684101 141.67709767818451 181.57117235660553 98.382708102464676 51.464971378445625 65.923063814640045 52.685427382588387 474.48108312487602 83.972213193774223 438.15347397327423 983.02441319823265 50.214498817920685 109.05818597972393 70.615552052855492 139.20527872443199 118.28849183022976 151.2218509465456 271.22946763038635 382.76412074267864
leaf_count=2095 745 672 565 303 241 491 383 1214 360 1307 2325 413 567 728 394 206 264 211 1902 336 1755 3936 201 437 283 558 476 606 1087 1533
internal_value=0 -0.00197221 -0.00342382 0.00773639 -0.00455454 -0.0119775 0.00163833 -0.00289105 -0.00557802 -0.0190911 0.0069265 0.00469479 0.00230685 0.00491585 0.0122011 -0.00114129 -0.0142001 0.00330705 0.00335209 -0.00655245 -0.00574597 -0.00501107 -0.00923992 0.0186563 0.00249145 0.00417596 0.0188866 0.000734649 -0.00290152 -0.000328782
internal_weight=0 5060.37 4157.57 379.794 3777.78 685.937 236.711 3091.84 2037.98 449.227 1575.88 902.8 1053.86 861.971 389.012 472.959 117.388 355.571 996.613 1948.1 1864.13 1803.94 191.892 290.629 799.782 729.166 193.788 561.657 422.451 820.918
internal_count=26594 20272 16653 1524 15129 2746 948 12383 8161 1798 6322 3619 4222 3454 1559 1895 470 1425 3997 7801 7465 7224 768 1165 3206 2923 779 2251 1693 3288
is_linear=0
shrinkage=0.03


Tree=6
num_leaves=31
num_cat=0
split_feature=44 22 50 56 19 52 17 53 2 4 0 9 56 20 43 44 13 4 35 47 15 2 50 56 16 22 10 13 18 58
split_gain=93.7119 61.2448 46.1405 41.2748 40.532 40.7175 39.8748 37.0917 43.4849 54.7565 37.7339 42.2975 35.3937 33.0824 32.1695 30.6738 33.6805 30.5389 30.2375 32.151 31.7214 26.221 25.415 39.8565 26.0903 25.3383 25.2494 27.9279 24.3193 22.8476
threshold=-0.56446520488761875 0.049926406337689334 -0.88710605138210996 2.2010469439403533 -0.34630606342447851 -0.84569447146671795 0.23016926516461952 -0.16402668192529021 0.14495312055932549 -0.23499479376544527 -0.18663223327317613 -0.20818912480668586 -0.95793327499843406 0.58195628443739855 -0.61933039261629197 -1.208894597449458 -0.39044822849894661 -0.27136284875072852 1.0594782819994972 1.3975505302858433 0.38708373105726385 -0.61449510166013199 0.40655768800087838 -0.80408909955212848 -0.59369971293266566 -0.077854449704880618 0.28100540496927678 -0.63714574643438227 -0.094703840033954254 1.1126919208763058
decision_type=2 2 2 2 2 2 2 2 2 2 2 2 2 2 2 2 2 2 2 2 2 2 2 2 2 2 2 2 2 2
left_child=1 15 26 4 7 22 13 -4 9 10 11 -9 -8 -7 -15 -1 29 -5 19 20 -14 -22 23 -6 -24 -13 27 -2 -20 -17
right_child=2 -3 3 17 5 6 12 8 -10 -11 -12 25 18 14 -16 16 -18 -19 28 -21 21 -23 24 -25 -26 -27 -28 -29 -30 -31
leaf_value=0.018326427312755876 -0.0097645233206159754 -0.0020953148377408607 -0.010752728760786449 -0.00095676812231405286 -0.0091439346751222058 -0.01958244251157738 0.014105812109995446 0.025321020063415418 -0.0035989843220034473 0.023252972911732013 -0.011353937685160064 -0.015350688049720803 -0.0021433825072661805 0.011712604939291188 -0.013965559370047091 -0.0013130754321255445 0.010691244055925026 0.023499544051354987 -0.00693473492345023 0.0055286541807650661 -0.0018802378790097603 -0.020960367443573765 -9.0037796216753627e-05 0.014306155672576728 -0.019319218843044328 0.0087075177673516854 0.013637604712308423 0.0063775817943663117 0.01819999758784821 0.014952542625689
leaf_weight=228.75723838806152 143.33602042496204 759.7843820899725 257.52573347091675 102.26451793313026 96.389992505311966 464.85446655750275 70.879516080021858 83.272903680801392 614.84164178371429 147.93028599023819 123.65843737125397 59.385902464389801 185.30960947275162 66.615689486265182 109.36856816709042 510.54595027863979 751.31928111612797 77.903091162443161 65.181281328201294 101.6354752779007 82.095853179693222 322.97175081074238 188.01653257012367 180.56867015361786 90.928317755460739 96.550883710384369 199.40138265490532 270.93033303320408 64.420709729194641 86.552774325013161
leaf_count=920 575 3044 1031 410 386 1861 284 334 2462 594 495 238 742 267 438 2047 3015 314 261 407 329 1293 753 724 364 387 800 1087 258 347
internal_value=0 0.00489311 -0.00257409 -0.00385323 -0.0045836 -0.00721585 -0.00973049 -0.000595978 0.00176498 0.00819381 0.00182203 0.0087263 -0.00558156 -0.0154207 -0.0041905 0.00825568 0.00648579 0.00996696 -0.00735501 -0.00983702 -0.0125065 -0.0171634 -0.000254889 0.00612739 -0.00658804 -0.000646911 0.00500896 0.000742577 0.00577085 0.00114931
internal_weight=0 2336.96 4266.24 3652.57 3472.4 2089.24 1533.33 1383.17 1125.64 510.798 362.868 239.21 892.494 640.839 175.984 1577.18 1348.42 180.168 821.615 692.013 590.377 405.068 555.904 276.959 278.945 155.937 613.668 414.266 129.602 597.099
internal_count=26467 9373 17094 14632 13908 8367 6140 5541 4510 2048 1454 959 3574 2566 705 6329 5409 724 3290 2771 2364 1622 2227 1110 1117 625 2462 1662 519 2394
is_linear=0
shrinkage=0.03


Tree=7
num_leaves=31
num_cat=0
split_feature=56 1 4 32 15 41 1 49 41 2 38 47 4 41 9 1 10 2 10 19 0 10 2 56 2 56 8 47 43 22
split_gain=70.0791 47.519 45.524 44.713 47.3293 75.3436 36.5622 37.1207 39.3105 35.0752 37.9177 38.3549 35.315 33.7134 41.2437 33.353 29.8305 28.0566 39.29 30.1646 29.5119 36.5337 33.5022 27.9909 25.3916 25.0981 23.8529 24.2827 23.8084 23.4202
threshold=-1.2289533419155545 -0.70444132202258347 1.2692838208988038 1.0236668148512666 0.3413359121993767 0.41059746538972591 0.1805951447347347 0.17342256717025276 0.50353684156062573 -0.51335693666146465 -0.68126419894922519 1.2305095474000194 -0.34546859936152335 -1.4975743486444399 0.877969898503275 -0.56462257220830236 -0.63475434103378781 -0.19103967550543047 0.21713539836004617 -0.16348563775786151 -0.5821591894580086 -1.0707704809650254 -0.52909449471532322 0.016145480669584423 0.18032781378096213 -0.52270640922110212 0.072507167213935755 -0.15676724709494291 -0.499250385892472 -0.33038758665667811
decision_type=2 2 2 2 2 2 2 2 2 2 2 2 2 2 2 2 2 2 2 2 2 2 2 2 2 2 2 2 2 2
left_child=1 -1 3 4 13 9 7 15 -9 12 -11 -12 -6 29 17 -3 -4 20 -19 26 21 -15 -22 -21 -5 -23 -20 -28 -7 -2
right_child=2 6 16 24 5 28 -8 8 -10 10 11 -13 -14 14 -16 -17 -18 18 19 23 22 25 -24 -25 -26 -27 27 -29 -30 -31
leaf_value=0.019464001072774996 -0.0095730449456291663 0.023315101147948422 -0.012017313088245796 0.010701019150246136 -0.020917320045297248 0.012542825714306198 0.022210309969198944 -0.01652747605452486 0.0095415932728937398 -0.028956379286505789 -0.017861787248976357 0.0056676790760154709 0.0041322367575272736 0.019170617185091322 -0.013395187661285052 0.00059321803958402634 0.012046959915943987 -0.0071615091546091119 0.014456350791305805 0.0054737125465085211 0.021526008028791569 -0.014605912322436803 0.0032992062098953071 -0.021381579600695699 -0.0039588814506415024 -0.0012708030905707638 0.0083313877586057954 -0.0094614108454387051 -0.0027899919609881366 0.012269350472427006
leaf_weight=230.14413757622242 49.916183233261108 81.45706881582737 49.855741307139397 357.22297966480255 69.96501150727272 124.21523258090019 74.81020450592041 158.81252035498619 72.391791015863419 189.22827176749706 232.08874142169952 81.867963254451752 152.39634042978287 57.873736590147018 263.95820726454258 178.35854741930962 323.6498501598835 1099.9876101315022 180.0885553508997 58.933789104223251 99.214641526341438 167.59834103286266 727.20815525949001 75.197520285844803 147.43105565011501 485.35298135876656 150.95736493170261 118.86511398851871 305.08395780622959 241.57115894556046
leaf_count=926 200 327 200 1433 280 498 300 637 291 758 929 328 611 232 1057 716 1299 4404 722 236 398 672 2915 301 591 1946 605 476 1223 971
internal_value=0 0.00812138 -0.00134383 -0.00204256 -0.00291431 -0.0082155 0.00337783 0.000313617 -0.00833586 -0.0140776 -0.0184315 -0.0117335 -0.00403617 -0.0012846 -0.00210804 0.00802266 0.00871853 -0.00116382 -0.0038336 0.00244178 0.00176383 -0.00270844 0.00560368 -0.0098094 0.00642141 -0.00477862 0.00616188 0.000463581 0.0017398 0.00843056
internal_weight=0 795.974 5809.73 5436.22 4931.57 1154.85 565.83 491.02 231.204 725.546 503.185 313.957 222.361 3776.72 3485.24 259.816 373.506 3221.28 1684.03 584.042 1537.25 710.825 826.423 134.131 504.654 652.951 449.911 269.822 429.299 291.487
internal_count=26482 3197 23285 21786 19762 4627 2271 1971 928 2906 2015 1257 891 15135 13964 1043 1499 12907 6744 2340 6163 2850 3313 537 2024 2618 1803 1081 1721 1171
is_linear=0
shrinkage=0.03


Tree=8
num_leaves=31
num_cat=0
split_feature=50 41 4 19 1 32 38 15 50 4 41 1 40 50 34 50 56 56 41 41 9 37 17 4 2 4 4 32 4 15
split_gain=85.2419 68.8728 70.9576 52.3432 45.0823 42.993 51.9625 39.8408 46.447 37.8073 37.0076 33.212 31.4068 27.2598 26.1975 25.6679 25.4469 30.5482 24.2152 30.3029 30.0789 27.7981 24.8903 24.208 22.0226 29.2181 28.1551 21.2095 21.1824 21.175
threshold=0.12696281870941178 -1.507195366773187 -0.31243913326107758 -0.34630606342447851 -0.70444132202258347 1.334578491901139 -0.72433969279996735 -0.54401978674751517 -1.3338263072622785 0.72062202065342718 -1.2943655465656712 -0.18803176454199974 -1.1366320223651429 0.59548387157260885 0.92832874172291924 -0.8258706795769778 -0.014145103798859339 0.45774913484765611 0.72312151180144202 0.47740165305320198 0.82775848907651517 0.10268049521722122 1.0832429395975745 -0.35187810077312653 0.3188005830445193 -0.29720888743247481 -0.29403952749347873 0.040999630202205602 -0.34117823239274975 0.3413359121993767
decision_type=2 2 2 2 2 2 2 2 2 2 2 2 2 2 2 2 2 2 2 2 2 2 2 2 2 2 2 2 2 2
left_child=4 2 29 11 7 6 10 8 -1 18 -5 13 -6 28 -14 -16 -13 -18 19 20 -8 -21 -22 -12 25 -19 -26 -27 -3 -2
right_child=1 3 -4 5 12 -7 9 -9 -10 -11 23 16 14 -15 15 -17 17 24 -20 21 22 -23 -24 -25 26 27 -28 -29 -30 -31
leaf_value=0.01991195997695033 0.0017831968805089489 -0.014478654675949611 0.019186834199829913 -0.0083282724543948944 -0.0063996121803865987 0.012549718442227912 -0.0062025463995439879 0.014729479253393815 -0.012072982596363201 0.010231633584015543 -0.0070320899972802289 0.010803600060738959 0.0014492919932231254 0.018111075677175976 0.01652249530705829 0.0023675839766737496 -0.016553278371256856 -0.013044946457900884 -0.027385646785740961 -0.0071779386819154174 -0.029335837632494092 0.020937326947103738 -0.0033472574924502518 -0.031327131572382538 -0.00026646336802159973 0.018609491429077019 -0.018125170441023714 -0.0042356480361480514 0.010854009607126991 -0.01807549702685789
leaf_weight=55.330750852823257 141.75173002481461 53.891292303800583 222.89184392988682 185.34804387390614 369.23491768538952 77.446317374706268 673.91116248071194 489.15433132648468 121.76537162065506 107.70396047830582 49.938788458704948 100.3342233300209 2035.0914850831032 137.00915879011154 223.49333997070789 236.69110654294491 155.35566706955433 52.233775824308395 51.217571556568146 59.437650486826897 99.43890181183815 58.375373244285583 50.675484269857407 187.13796307146549 233.78090614080429 115.95050294697285 115.47260521352291 50.130676239728928 55.040084287524223 67.715085551142693
leaf_count=223 568 216 898 742 1480 311 2698 1967 488 432 200 402 8159 550 899 949 622 209 205 238 398 234 203 750 936 465 462 201 221 271
internal_value=0 -0.00345694 0.00759068 -0.00525686 0.00335394 -0.00868146 -0.00979849 0.0103531 -0.00180747 -0.00631527 -0.0186951 -0.000113561 0.00171083 0.00944824 0.00292135 0.00934576 -0.00300985 -0.00498805 -0.00815216 -0.00696714 -0.00899989 0.00703819 -0.0209533 -0.0264605 -0.00170549 0.00569018 -0.00634352 0.0117916 -0.00176414 -0.00490833
internal_weight=0 3102.19 432.359 2669.83 3530.76 1600.63 1523.18 666.25 177.096 1100.76 422.425 1069.2 2864.51 245.941 2495.28 460.184 823.258 722.924 993.056 941.839 824.026 117.813 150.114 237.077 567.568 218.315 349.254 166.081 108.931 209.467
internal_count=26597 12432 1737 10695 14165 6411 6100 2678 711 4408 1692 4284 11487 987 10007 1848 3297 2895 3976 3771 3299 472 601 950 2273 875 1398 666 437 839
is_linear=0
shrinkage=0.03


Tree=9
num_leaves=31
num_cat=0
split_feature=44 22 10 19 3 44 11 35 32 23 4 15 35 17 52 23 13 44 47 53 38 2 6 40 53 37 4 2 38 53
split_gain=80.5752 59.0035 35.2036 30.3918 42.933 30.2256 30.7633 29.9645 34.6007 31.2461 29.8812 24.8648 44.9282 25.5328 31.688 33.3108 28.9882 24.3583 29.4997 25.5877 24.2048 23.8403 23.8023 23.795 25.0754 23.2794 31.0187 44.9949 34.2016 32.8111
threshold=-0.56446520488761875 0.049926406337689334 0.66636465353640351 -0.36403744563479246 -0.50446650666043202 -1.208894597449458 -0.0079104680269421902 1.7896747883925854 0.7593586516362173 -0.49076068162910069 0.52121894296337079 0.32812634423097159 1.0594782819994972 0.25155006102980787 -0.89606654035492317 0.09458550417525681 -0.35363442972956444 1.510144478929363 1.4380580581665752 -0.61864185093457402 -0.58062978331705173 0.82023322867286796 1.1571286897302624 0.73645649170355332 -0.66565725056371716 0.41189427230302972 -0.23499479376544527 0.14495312055932549 -0.84536842583352689 0.76795179505663924
decision_type=2 2 2 2 2 2 2 2 2 2 2 2 2 2 2 2 2 2 2 2 2 2 2 2 2 2 2 2 2 2
left_child=1 5 21 23 17 -1 -7 8 10 -10 11 13 -13 14 -6 -16 -15 19 -19 -5 -21 -3 -8 24 -2 26 28 -28 -26 -29
right_child=3 2 -4 4 7 6 22 -9 9 -11 -12 12 -14 16 15 -17 -18 18 -20 20 -22 -23 -24 -25 25 -27 27 29 -30 -31
leaf_value=0.01795035426395997 -0.014668014419676863 1.4803745751715354e-05 -0.01083028458882002 -0.0075444088657735326 0.0039020317542969277 0.002727588228082843 0.015053662621999411 0.011820991891093719 0.0087793960323269485 -0.01208218767265087 0.0059869971968926862 -0.020404961832272851 0.0032476624468866944 -0.017486556711100842 -0.021773261014117026 -0.0050942977297894348 0.0070639901865700338 -0.023819887024961132 0.0040897722107974196 -0.0055143442179914322 0.0096089802358366415 0.020030550527827973 -0.0042443803268407791 0.006545270859392379 0.012879622268612119 -0.0061279988835953557 0.022427638293710753 -0.019399549005751551 -0.0056257376019206561 0.010077832649489528
leaf_weight=223.07477688789368 112.79132558405399 431.66166931390762 274.86808513104916 149.0554733723402 99.848275855183601 871.82994754612446 394.46006599068642 66.749528974294662 181.80012159049511 93.855630457401276 94.41541762650013 419.87344799935818 85.576567441225052 52.912900418043137 249.31353875994682 193.76199898123741 166.47362233698368 66.650517031550407 62.611399203538895 118.58900302648544 427.20215168595314 56.143417298793793 64.961376771330833 444.13243634998798 110.49888828396797 386.23100243508816 140.2600225508213 51.480614691972733 401.04063558578491 80.429714605212212
leaf_count=900 452 1730 1101 598 400 3498 1586 268 729 376 379 1683 343 212 998 777 667 267 251 475 1714 225 261 1781 443 1548 564 206 1607 323
internal_value=0 0.00447985 -0.00234455 -0.00246648 -0.00455834 0.00782521 0.00606774 -0.0072699 -0.00808156 0.00158771 -0.0100369 -0.0112491 -0.0164078 -0.00774403 -0.0112072 -0.0146176 0.000885039 0.00106025 -0.0106523 0.00329965 0.00630277 0.00249835 0.0123086 0.000601003 -0.00147456 -0.000145601 0.00282283 0.010907 -0.00154237 -0.00171464
internal_weight=0 2317 762.673 4255.55 2528.69 1554.33 1331.25 1704.58 1637.83 275.656 1362.18 1267.76 505.45 762.31 542.924 443.076 219.387 824.109 129.262 694.847 545.791 487.805 459.421 1726.86 1282.73 1169.94 783.71 272.17 511.54 131.91
internal_count=26362 9301 3056 17061 10137 6245 5345 6832 6564 1105 5459 5080 2026 3054 2175 1775 879 3305 518 2787 2189 1955 1847 6924 5143 4691 3143 1093 2050 529
is_linear=0
shrinkage=0.03


Tree=10
num_leaves=31
num_cat=0
split_feature=44 1 8 50 41 4 40 1 46 34 49 10 47 38 13 4 47 56 43 44 15 4 35 40 48 34 21 10 18 17
split_gain=69.8181 47.8309 39.2575 38.5996 45.2966 48.2361 38.0464 31.5765 36.259 31.0485 29.3141 34.0614 27.9852 27.5734 57.5403 36.7249 39.7026 42.607 42.838 30.7695 32.5164 38.4161 32.83 28.4283 28.833 27.4591 27.2268 27.3941 24.6231 24.599
threshold=-0.61501814900272911 -0.70444132202258347 1.050426208282139 -0.88710605138210996 -1.507195366773187 -0.31483025562747807 -1.1766051032240055 -0.75917208912242939 -0.36059441824970412 0.82103316600495424 0.71097253535042892 -0.10720186268091657 -0.61613039801442082 -0.72433969279996735 -0.8514180638361063 -0.34656373699830606 1.0881068410536954 1.2325479922105496 0.54209083219501941 -0.44559817298298582 0.30536495345169551 -0.31109464341959442 -0.66211324304965369 -0.87554175646589705 -0.68674441580055434 -0.38499143646194012 0.21592645068768598 0.32950496177618155 -0.49657812837032705 -1.0230547039155067
decision_type=2 2 2 2 2 2 2 2 2 2 2 2 2 2 2 2 2 2 2 2 2 2 2 2 2 2 2 2 2 2
left_child=1 7 9 6 5 -5 -2 8 12 -3 29 -12 -1 14 -6 -15 17 18 23 -16 21 -21 28 25 -25 -17 -18 -28 -22 -8
right_child=3 2 -4 4 13 -7 10 -9 -10 -11 11 -13 -14 15 19 16 26 -19 -20 20 22 -23 -24 24 -26 -27 27 -29 -30 -31
leaf_value=0.0076868689605099618 -0.016717396488403594 0.001433172781627572 -0.010226969768166238 -0.004650743043030754 0.020012320315790224 0.015146221063607104 -0.013636882522024029 0.024241581813572246 0.017235944283827378 0.011631862042037356 -0.0032027115814631142 0.025843731980900966 -0.017533422059976222 -0.0078286387504037502 0.0066698185802091647 -0.0018894905570020989 0.013497254891062273 0.017691258924913741 -0.014508278747333734 0.00016219784116930399 0.0041965000293508001 -0.018867879943911422 -0.031875248324861029 0.010103775721554704 -0.0072923120840778042 0.021959411835178615 0.01048834279931884 -0.011337399464889651 -0.023093155041625017 0.0057343731714873426
leaf_weight=88.30247662961483 63.825959965586662 1264.4201198518276 203.70192916691303 211.20481756329536 50.144881263375282 223.80435729026794 65.832375109195709 144.79858128726482 154.78953146934509 336.77895835042 50.246229469776154 117.31352552771568 64.02037438750267 939.29565358161926 69.053837165236473 89.066404283046722 254.69897040724754 75.526446744799614 296.95842823386192 213.86766295135021 56.848286315798759 167.33508722484112 139.21404530107975 99.49652124941349 482.32166492938995 78.509262576699257 91.59716933965683 106.56673228740692 54.589515596628189 351.25401285290718
leaf_count=356 256 5072 816 846 201 903 264 585 623 1354 202 472 257 3761 277 357 1021 303 1190 857 228 670 559 399 1933 315 367 427 219 1410
internal_value=0 0.00422358 0.00202245 -0.0022737 -0.00345717 0.00559081 0.00445386 0.0128964 0.00724471 0.00360779 0.00688728 0.0172931 -0.00313343 -0.00466934 -0.00969775 -0.00315087 -0.000344745 -0.00337046 -0.00496761 -0.01195 -0.0140213 -0.00832749 -0.0223484 -0.00111588 -0.00425667 0.00959624 0.00710582 -0.00123906 -0.00958936 0.00255152
internal_weight=0 2256.81 1804.9 4348.57 3700.1 435.009 648.472 451.911 307.112 1601.2 584.646 167.56 152.323 3265.09 751.053 2514.04 1574.74 1121.88 1046.35 700.908 631.855 381.203 250.652 749.394 581.818 167.576 452.863 198.164 111.438 417.086
internal_count=26500 9063 7242 17437 14833 1749 2604 1821 1236 6426 2348 674 613 13084 3011 10073 6312 4497 4194 2810 2533 1527 1006 3004 2332 672 1815 794 447 1674
is_linear=0
shrinkage=0.03


Tree=11
num_leaves=31
num_cat=0
split_feature=44 22 50 17 44 4 53 18 53 15 53 9 38 47 52 10 6 19 4 0 10 1 47 38 2 53 22 30 9 46
split_gain=59.2137 47.2172 34.2567 34.1832 36.9635 31.6394 35.3594 32.5924 29.5901 44.9956 59.7625 35.3421 28.3628 42.565 28.0214 26.8868 26.455 24.8814 24.1242 28.5914 24.1779 23.2489 22.6067 21.5095 31.1462 25.8879 24.086 24.2548 21.2635 20.815
threshold=-0.56446520488761875 0.049926406337689334 -0.88710605138210996 0.010020982021262921 -1.208894597449458 0.60748402687600278 0.086177516618435854 -1.4195556919689407 -0.42487559034532035 0.32812634423097159 -0.17956025282323304 -0.95488130482623024 -0.4096638547665345 1.3587134914991672 0.89396614912929306 -0.088662849439808802 1.6288640221334438 -0.78876570108664168 0.35556680000061686 -0.53532352000963834 0.16708223771982186 -0.59409215642690005 0.67300962074162396 0.59821287297462089 -0.17237661100394816 -0.16402668192529021 -0.076169223559449842 -0.22195843070121682 -0.041547811800317809 -1.0122379922100508
decision_type=2 2 2 2 2 2 2 2 2 2 2 2 2 2 2 2 2 2 2 2 2 2 2 2 2 2 2 2 2 2
left_child=1 3 14 4 -1 7 -7 -4 11 23 -11 -9 13 -12 15 -2 29 -13 19 20 -6 -3 -14 25 -25 -10 27 28 -27 -5
right_child=2 21 5 16 18 6 -8 8 9 10 12 17 22 -15 -16 -17 -18 -19 -20 -21 -22 -23 -24 24 -26 26 -28 -29 -30 -31
leaf_value=0.017008936525769677 -0.00077106876772593217 -0.02112972796980921 0.0041827583541737753 0.023755878052026048 -0.0014996889059145384 -0.009698726352868314 0.013358675491708372 0.008873626689902327 -0.01514544961404315 0.014355799901831978 -0.026189738642146757 -0.0039055636643013461 0.005438029635269969 -0.002676784439661906 -0.0089262541192061118 0.013091153838259366 -0.0082953919496290916 -0.02353099066849661 0.013130114618880674 0.0042086448828993024 -0.017987459305404772 -0.0010061624237118784 -0.011766025589816143 0.025015172992472898 -0.0042421801746507868 -0.0069530364526529326 0.0013402225805879135 0.00080140074481808933 -0.024021559682703541 0.010355079743163086
leaf_weight=138.03078231215477 219.44711881875992 50.695147514343262 363.50110286474228 141.68804064393044 207.45019593834877 82.340284526348114 189.00788827240467 49.929729908704758 132.57875809073448 74.216757148504257 237.55127348005772 84.947511792182922 92.578558877110481 98.726721182465553 115.85694885253906 288.82278577983379 49.715617582201958 196.33717511594296 110.76582203805447 357.61458112299442 126.38575042784214 724.21427048742771 237.00103713572025 58.625259667634964 64.944744020700455 310.2866168320179 1003.8492523729801 277.51726591587067 81.124626934528351 428.80460715293884
leaf_count=558 881 203 1457 571 833 330 760 200 531 298 954 340 371 396 465 1161 200 786 446 1435 507 2902 950 235 260 1243 4027 1112 325 1727
internal_value=0 0.0035932 -0.00234555 0.00659228 0.00295905 -0.00346051 0.00631305 -0.00425714 -0.00528496 -0.00421874 -0.0104816 -0.0136863 -0.0133363 -0.019427 0.00412415 0.00715689 0.0120326 -0.0177759 0.000451217 -0.00165954 -0.00791505 -0.00244968 -0.00692438 -0.00179498 0.0100714 -0.00263277 -0.00159887 -0.00598674 -0.0107491 0.0138608
internal_weight=0 2335.36 4259.19 1560.46 940.247 3635.06 271.348 3363.72 3000.22 2669 740.074 331.214 665.858 336.278 624.127 508.27 620.208 281.285 802.216 691.451 333.836 774.909 329.58 1928.93 123.57 1805.36 1672.78 668.929 391.411 570.493
internal_count=26464 9382 17082 6277 3779 14575 1090 13485 12028 10702 2969 1326 2671 1350 2507 2042 2498 1126 3221 2775 1340 3105 1321 7733 495 7238 6707 2680 1568 2298
is_linear=0
shrinkage=0.03


Tree=12
num_leaves=31
num_cat=0
split_feature=50 15 47 50 9 1 56 52 17 44 4 35 47 9 40 34 32 1 0 46 2 34 9 32 1 41 0 17 4 52
split_gain=67.2117 55.1887 44.2167 39.161 30.8016 30.3422 29.651 42.3459 35.8814 35.4966 32.5976 33.8163 28.5965 36.3067 54.5326 46.637 38.0555 35.4722 33.3797 40.3327 35.938 32.5065 36.8884 31.5303 28.5938 34.0622 28.3986 30.2829 27.9419 27.0136
threshold=0.12696281870941178 0.016711055039603181 1.3887809083330962 0.44761530997281512 1.4216235860965478 -0.51451997149028261 0.45774913484765611 -0.36696756017570692 -0.81586212373534639 0.46444983514492655 -0.34546859936152335 -1.2146160181585794 0.13137864683842007 -0.95488130482623024 -0.4479597275036899 0.22238646931294787 -0.72596030483916307 -0.70444132202258347 -0.76510127855277021 0.83462037106122944 -0.76928510280369966 0.51883951187808108 0.93986625780403987 0.9184761468513255 0.29829429214646475 -1.4885670653670997 0.14263402367497685 -0.97547882161831401 -0.295766668773011 -0.66561694322175868
decision_type=2 2 2 2 2 2 2 2 2 2 2 2 2 2 2 2 2 2 2 2 2 2 2 2 2 2 2 2 2 2
left_child=12 6 3 5 -5 -3 7 9 26 -2 -10 -12 17 15 -15 -14 28 18 19 20 -1 22 -19 -24 -13 -26 -8 -28 -16 -7
right_child=1 2 -4 4 -6 29 8 -9 10 -11 11 24 13 14 16 -17 -18 21 -20 -21 -22 -23 23 -25 25 -27 27 -29 -30 -31
leaf_value=0.0061094538034550628 -0.0088435552067190459 0.011207661621634262 0.0030400746370937608 -0.017283291245098895 0.0034908195693506769 0.0072951045339235375 0.0089548724204033918 -0.012943551163938761 -0.00096076318652489417 0.015367665669323669 -0.010854727144473561 0.017024668120651384 0.023180738617759739 -0.021088221748537229 -0.024081758573497331 -0.0073718047165323049 0.0054103759878348628 0.0023164022438972864 0.01881781320075002 0.025000901441404676 -0.018759279605240285 0.008648300534888154 -0.017154601423190002 0.0063626734378538193 0.01611194641190301 -0.015569253316941407 -0.001968613430847596 -0.023145324534873602 0.0037863872399916004 -0.013532866159136795
leaf_weight=161.02225224673748 95.1126409471035 97.194138780236244 264.09947979450226 585.85237421095371 70.363226532936096 73.431637361645699 85.645669564604759 298.89824007451534 374.0419065952301 115.42695496976376 55.839340537786484 372.61572952568531 95.720106646418571 149.75752171874046 80.41852505505085 77.828999161720276 306.82860453426838 1375.7919531464577 260.22544339299202 59.598046481609344 71.401798531413078 584.52048659324646 169.76906964182854 69.542343512177467 54.316969588398933 57.964634627103806 149.57143910229206 98.580484345555305 50.205696895718575 200.33781109750271
leaf_count=649 381 390 1059 2351 282 295 344 1197 1498 463 224 1498 384 600 322 312 1231 5520 1052 240 287 2351 680 279 220 232 599 395 201 803
internal_value=0 -0.00316621 -0.0078625 -0.0106668 -0.0150462 -0.00282284 0.000295772 -0.00576978 0.00278375 0.00447866 0.00584882 0.0105248 0.00291667 -0.00222039 -0.00578249 0.00965654 -0.000363628 0.00433827 0.0111028 0.00402688 -0.00176451 0.00261859 0.000416433 -0.0103303 0.0130725 -0.000209756 -0.00557848 -0.0106722 -0.0136259 -0.00791565
internal_weight=0 3049.29 1291.28 1027.18 656.216 370.964 1758.01 509.438 1248.58 210.54 914.779 540.737 3512.63 760.759 587.21 173.549 437.453 2751.87 552.248 292.022 232.424 2199.62 1615.1 239.311 484.897 112.282 333.798 248.152 130.624 273.769
internal_count=26339 12231 5180 4121 2633 1488 7051 2041 5010 844 3672 2174 14108 3050 2354 696 1754 11058 2228 1176 936 8830 6479 959 1950 452 1338 994 523 1098
is_linear=0
shrinkage=0.03


Tree=13
num_leaves=31
num_cat=0
split_feature=44 41 41 4 32 3 38 11 19 35 9 43 14 20 9 56 41 10 4 43 17 31 18 43 32 8 44 1 34 17
split_gain=57.0047 33.7748 35.0119 40.9399 33.9166 36.3721 52.8618 50.8157 33.0338 30.9149 30.0718 29.4808 46.0591 34.2876 28.6018 24.9907 24.6551 33.6432 24.0469 35.4699 36.9987 25.276 23.5134 29.3 26.3691 24.9667 27.1123 23.8455 23.2635 23.1377
threshold=-0.83057459348249474 1.6922203605330195 -1.507195366773187 -0.31483025562747807 0.85056821428847973 -0.50145276176343667 -0.72433969279996735 -0.75222365134188707 -0.71797965636160088 1.7896747883925854 0.877969898503275 -0.67643693885886658 0.15510944351241862 -0.585219018857014 -1.4975054458266046 0.6761594007463545 1.3032031718346653 0.10351665853586099 -0.28110231591617091 -0.53221557965124311 -0.8310081286670844 -0.44386766133902217 -0.1662326159227214 1.2222571450901041 -0.41238557544828858 -0.052394190147643842 -0.47253091236992512 0.64847163722372281 0.08345150558991947 -0.28337350387584243
decision_type=2 2 2 2 2 2 2 2 2 2 2 2 2 2 2 2 2 2 2 2 2 2 2 2 2 2 2 2 2 2
left_child=11 2 3 -2 5 16 7 -7 -3 10 18 12 -1 -13 -6 -12 -4 -18 22 20 -20 -21 23 25 -24 26 -8 -28 -11 -22
right_child=1 8 4 -5 14 6 9 -9 -10 28 15 13 -14 -15 -16 -17 17 -19 19 21 29 -23 24 -25 -26 -27 27 -29 -30 -31
leaf_value=0.0078406157992033047 -0.0032048814804368862 -0.0066867099678208667 0.0023143941185220121 0.015267117704934965 0.020385898860839736 0.0095534902218955935 0.0067995705685209122 -0.01837784848168807 0.022456577770574592 0.02060053798226439 -0.020750716809166011 -0.0033599601460418209 -0.0098964345405987749 0.011333229792592147 0.0011905793761258286 -0.0025837997868756067 -0.018162337086169558 0.0044447424312061001 -0.0079984686015453013 0.011710496689358928 0.031113738455158271 -0.0065619603989051385 -0.0082798328580141901 0.0084675508525819381 0.0044968700355340575 -0.025748620162833361 -0.017104034200294372 0.00070261376541216794 -0.0051311536003119411 0.005584718062593674
leaf_weight=274.27762822806835 210.93214988708496 51.046467319130898 1040.103367805481 213.20943950116634 74.846000790596008 64.627154141664505 76.838479101657867 428.12017887830734 94.684110775589943 74.224025830626488 171.0028210580349 175.69675371050835 244.47418586909771 718.34243382513523 564.97183577716351 113.80687537789345 131.10035529732704 102.04409651458263 54.596842736005783 79.057021468877792 74.828016921877861 358.82382568717003 265.85080799460411 65.413664132356644 309.11191500723362 97.358201012015343 257.42160652577877 90.690650314092636 49.868040353059769 57.635085701942444
leaf_count=1104 845 205 4176 862 301 259 308 1720 381 298 685 707 982 2892 2267 456 526 410 219 317 301 1439 1065 262 1238 390 1031 363 200 231
internal_value=0 -0.00163244 -0.00205014 0.0061504 -0.00281174 -0.00384648 -0.0058211 -0.0146553 0.0123651 -0.00381054 -0.00468825 0.00515695 -0.00053307 0.00844309 0.00357671 -0.0136612 0.000330659 -0.00838196 -0.00322453 0.00151414 0.0122715 -0.003168 -0.00576713 -0.00996102 -0.00143126 -0.0123274 -0.00898886 -0.0125208 0.0104617 0.0206131
internal_weight=0 5172.21 5026.48 424.142 4602.34 3962.52 2689.28 492.747 145.731 2196.53 2072.44 1412.79 518.752 894.039 639.818 284.81 1273.25 233.144 1787.63 624.941 187.06 437.881 1162.69 587.723 574.963 522.309 424.951 348.112 124.092 132.463
internal_count=26440 20755 20169 1707 18462 15894 10782 1979 586 8803 8305 5685 2086 3599 2568 1141 5112 936 7164 2507 751 1756 4657 2354 2303 2092 1702 1394 498 532
is_linear=0
shrinkage=0.03


Tree=14
num_leaves=31
num_cat=0
split_feature=3 44 23 3 41 4 41 17 38 56 11 32 49 40 15 17 47 56 47 49 20 15 56 47 3 15 15 6 47 41
split_gain=52.8258 40.7526 35.4865 33.5466 33.3392 48.3109 33.4159 29.1656 45.1031 48.9504 33.6897 33.6447 31.8136 32.574 31.4786 57.686 30.3772 34.4301 34.0108 29.8052 26.9556 25.6368 38.7486 32.7191 29.8105 24.9932 24.942 24.3095 22.0439 31.8809
threshold=-0.77627467177735099 -0.56446520488761875 0.042168694422937338 -0.59385477744916082 -1.5154522506641552 -0.31483025562747807 1.6661535111167527 -0.54807618513140077 -0.23850818690225403 1.1241401478243864 -0.41090338106084262 1.2706652323882504 0.71097253535042892 -0.45739521917015896 0.38708373105726385 0.57608878956819753 -0.91763966056371282 0.43224137144913871 0.13137864683842007 -0.23275023094181702 0.19864957658397084 -0.54401978674751517 0.46572019667266534 0.17313899205375619 0.16081122567445411 -0.026466417855527821 0.15681193766168253 1.5582385697298446 0.85383159389048668 -0.95775335231505287
decision_type=2 2 2 2 2 2 2 2 2 2 2 2 2 2 2 2 2 2 2 2 2 2 2 2 2 2 2 2 2 2
left_child=-1 2 25 -4 5 -3 7 12 11 10 26 14 21 -14 15 19 -12 18 -18 -9 -21 22 23 -6 -24 -2 -10 -27 -20 -30
right_child=1 4 3 -5 6 -7 -8 8 9 -11 16 -13 13 -15 -16 -17 17 -19 28 20 -22 -23 24 -25 -26 27 -28 -29 29 -31
leaf_value=0.023321930447393554 0.0025505170957913752 -0.0047163971515193689 -0.024949277763516166 -0.0006846389423542001 -0.0034722010430293672 0.015960974748029273 0.010411936561807706 -0.0017732735752218408 -0.017166040947403587 0.022754625316116887 -0.01921673296439445 0.0059124284210860956 -0.002250424922411252 0.015510154035537139 -0.017050984868327013 0.013852730282283928 0.013233851651662985 0.015247506652734459 -0.0088988115843815167 -0.02184985465660914 -0.0050469046925027536 0.006075491906030646 0.013700955249603334 -0.023662555518667215 -0.0056681891851614171 0.013037316714588389 0.0055452211684355896 -0.0063154426094570743 -0.0066951996598142126 0.013999444630548896
leaf_weight=79.981145635247231 949.62626519799232 193.73088921606541 50.130682930350304 738.92213217914104 141.1975165605545 205.01110652089119 153.58363080024719 227.14335356652737 200.8075957596302 66.212266862392426 64.873752236366272 113.79306896030903 167.61391289532185 200.52986924350262 459.11844827234745 99.012535780668259 117.5914095044136 130.35038942098618 353.42048811912537 229.07749930024147 141.66499008238316 199.45287427306175 106.42248113453388 147.34280471503735 194.83192490041256 466.50610798597336 52.578308507800102 63.648368984460831 146.48930865526199 115.35547004640102
leaf_count=323 3820 776 201 2963 566 830 618 911 805 266 260 457 672 805 1845 397 473 523 1417 918 568 800 428 590 780 1883 211 256 587 463
internal_value=0 -0.000485021 0.00275466 -0.00237363 -0.00222503 0.00598077 -0.00308636 -0.00366387 -0.005473 -0.00141193 -0.00285647 -0.0094421 0.00027784 0.00750206 -0.0109725 -0.00687501 -0.000188076 0.00134444 -0.00121501 -0.010394 -0.0155819 -0.0031179 -0.0062518 -0.0140098 0.00128622 0.00548796 -0.0124373 0.0106766 -0.00406094 0.00251329
internal_weight=0 6496.04 2268.83 789.053 4227.21 398.742 3828.46 3674.88 2517.49 1247.68 1181.47 1269.81 1157.39 368.144 1156.02 696.898 928.081 863.207 732.857 597.886 370.742 789.248 589.795 288.54 301.254 1479.78 253.386 530.154 615.265 261.845
internal_count=26412 26089 9123 3164 16966 1606 15360 14742 10101 5005 4739 5096 4641 1477 4639 2794 3723 3463 2940 2397 1486 3164 2364 1156 1208 5959 1016 2139 2467 1050
is_linear=0
shrinkage=0.03


Tree=15
num_leaves=31
num_cat=0
split_feature=44 22 41 38 15 53 53 23 17 17 46 38 44 40 32 9 9 38 41 52 35 11 23 53 53 44 43 52 18 10
split_gain=54.7062 63.1665 33.1014 37.2055 48.5228 34.2198 29.0418 52.7575 29.0729 28.648 30.4523 28.274 32.5458 29.5292 26.9251 32.189 29.1486 26.5556 26.0541 24.083 28.004 25.4198 21.6021 28.4122 21.5347 20.6863 19.4563 18.9689 23.7271 25.7564
threshold=-0.47253091236992512 0.049926406337689334 -1.5017367486016207 -0.22974019121849129 -0.47796079060054208 -0.63119758091934386 -0.2219609552751729 -0.20126991850130668 -0.21285126103121446 0.010020982021262921 -1.5206874401693622 -0.16169782451212369 -1.208894597449458 0.88619503928320098 1.6521478310944142 0.93986625780403987 -0.18335779199502913 -0.48952453154889597 -1.3920119269078637 -0.36696756017570692 1.0220506050427591 -0.41090338106084262 -0.077588960387399333 -0.54253670109839247 0.74778110142125842 -0.26320166469816714 -0.037296990196453182 0.72184531839249788 -0.027616823612451762 0.17415384757735228
decision_type=2 2 2 2 2 2 2 2 2 2 2 2 2 2 2 2 2 2 2 2 2 2 2 2 2 2 2 2 2 2
left_child=1 9 -2 4 27 -5 7 -6 17 11 -11 12 -1 -13 15 16 -3 -8 -10 -7 21 -21 23 26 -23 -22 -14 28 -4 -30
right_child=2 14 3 5 6 19 8 -9 18 10 -12 13 22 -15 -16 -17 -18 -19 -20 20 25 24 -24 -25 -26 -27 -28 -29 29 -31
leaf_value=0.026533336974351895 0.0056068377877200298 -0.021832327356653549 -0.012458245824241369 -0.0091280965230827443 0.020862030982957289 0.007625740713508267 0.0056500983557881074 -0.015098442843826677 -0.0036350581599605132 0.029206882918204707 0.0091293736656996582 -0.0048984260557077327 -0.0093462576597731113 0.0084099384332362078 0.01216210307382851 -0.015009610125838041 0.0010471893695357525 -0.01330382219715842 -0.017457672140618753 -0.011557706431015414 -0.0011917572829777097 -0.002664001332908548 -0.0029694440291399161 0.02126779847251371 0.016222681411021216 0.011531948336150595 0.013480361844046324 0.01052174741624191 0.014976772019676687 -0.0063134159989742299
leaf_weight=76.482184275984764 449.94524796307087 50.642808377742767 122.01104862987995 311.60820719599724 69.193560510873795 436.29531027376652 145.67262153327465 67.838575690984726 159.49728652834892 73.211297005414963 626.83186219632626 434.23449325561523 69.36146505177021 222.92209169268608 86.738855302333832 206.50504121184349 500.90518733859062 114.4655924141407 575.8923779129982 269.21059256792068 231.53394041955471 344.81383480131626 158.28986173868179 119.57795731723309 59.326263383030891 221.83693204820156 56.348840892314911 146.89173199236393 94.769491612911224 100.69791929423809
leaf_count=311 1813 203 489 1250 278 1751 584 272 640 296 2529 1745 279 897 348 827 2008 459 2314 1079 929 1383 636 480 238 893 227 589 380 404
internal_value=0 0.00354757 -0.00200786 -0.00300143 -0.0063587 -0.000132181 -0.00969526 0.00315477 -0.011471 0.00666378 0.0114213 0.00369796 0.00919188 -0.000354519 -0.00322891 -0.00505816 -0.00123086 -0.00278358 -0.0145045 0.00168466 -0.000639402 -0.00450741 0.00562101 0.0111132 0.000272865 0.0050919 0.00100989 0.00179547 -0.00234256 0.00412491
internal_weight=0 2682.05 3921.5 3471.56 1596.93 1874.63 1132.56 137.032 995.528 1837.26 700.043 1137.22 480.06 657.157 844.792 758.053 551.548 260.138 735.39 1563.02 1126.72 673.351 403.578 245.288 404.14 453.371 125.71 464.37 317.478 195.467
internal_count=26531 10786 15745 13932 6409 7523 4547 550 3997 7400 2825 4575 1933 2642 3386 3038 2211 1043 2954 6273 4522 2700 1622 986 1621 1822 506 1862 1273 784
is_linear=0
shrinkage=0.03


Tree=16
num_leaves=31
num_cat=0
split_feature=50 41 4 32 15 1 41 47 1 34 17 19 41 23 3 37 38 23 17 46 37 19 0 47 47 3 19 17 10 22
split_gain=55.3709 36.4448 33.0651 36.3552 60.7066 31.5708 30.4727 30.8652 28.419 25.9998 25.9281 42.2354 41.7288 45.6179 32.7556 40.3507 24.447 30.1567 39.8391 35.0563 24.4204 24.1679 23.1009 23.0365 22.6469 34.1738 30.7298 22.0645 27.9547 24.16
threshold=-0.78165477953169071 1.0971957150871017 0.60748402687600278 0.85056821428847973 0.32812634423097159 0.54042867650220805 0.55253064745471259 1.4451573893866227 -0.77832267296211299 0.99287054094552885 -0.55526454177735773 -1.1089047033285644 -1.3296438503972234 -0.52101651668163595 -0.45416462037031285 -0.19609761663173278 -0.74835457175867415 0.37891265997572332 1.4501130190764904 -0.093276245513848485 0.034065263187104684 0.049628786391668143 -0.53901250148862878 0.12386184222027667 0.60661070040074672 -0.7004650610147577 0.51029021786253448 0.29135554122870594 -0.66037014934054017 -0.071235315013402536
decision_type=2 2 2 2 2 2 2 2 2 2 2 2 2 2 2 2 2 2 2 2 2 2 2 2 2 2 2 2 2 2
left_child=5 2 3 4 10 8 7 16 -1 -10 11 -2 13 -12 15 -14 -6 18 19 -18 22 -15 -13 -11 25 -4 -26 28 -5 -29
right_child=1 -3 24 27 6 -7 -8 -9 9 23 12 20 14 21 -16 -17 17 -19 -20 -21 -22 -23 -24 -25 26 -27 -28 29 -30 -31
leaf_value=0.023712807632917453 -0.0085041485277430572 -0.017603669435749328 0.016520294344734152 -0.012386444841376146 -0.02435999209998255 -0.01455216119429777 0.0046899573910323808 0.0017790252226577504 0.0028196482413871695 0.016366721878010155 -0.016425141538805688 -0.0051730758545918722 -0.010708688873816085 0.0040009214145651992 -0.0094153498579453918 0.010015465808815845 -0.022105335268421813 -0.02171716752193056 0.017893053739870331 5.0308685215465111e-05 0.00039518043603913554 0.02251625561424541 0.013421920708934842 -0.0039670956448883774 0.0048069268007718642 -0.010109475080207989 0.031796427189589214 0.016065865819651023 0.0043492938739390372 0.00034169275629144494
leaf_weight=67.07612307369709 234.21926057338715 119.07299517095089 66.643409982323647 123.2662724852562 173.92852330207825 71.006457671523094 107.41852809488773 118.40983164310455 1512.6391173154116 246.0756584405899 61.634461879730225 68.543765410780907 137.1623849272728 164.38461463153362 805.48325435817242 203.85372494161129 114.87424485385418 151.03835946321487 50.258147373795509 138.52894547581673 404.10357022285461 101.24293759465218 378.87858483195305 60.520133405923843 94.094671100378036 104.91229730844498 61.219514697790146 203.94256667792797 294.83037681877613 152.24476119875908
leaf_count=272 938 477 270 494 704 285 431 475 6085 997 247 275 550 661 3229 818 461 606 202 556 1621 408 1522 243 379 422 247 821 1184 611
internal_value=0 -0.00156179 -0.00111973 -0.00184 -0.00317098 0.00444966 -0.0100698 -0.0122092 0.00520152 0.00445588 -0.000852767 0.00265805 -0.00343949 0.00594533 -0.00613252 0.00164557 -0.0148373 -0.0109694 -0.00535831 -0.0102268 0.00576002 0.0113436 0.0105475 0.0123537 0.00799801 0.000410152 0.0161052 0.00401119 -0.000672926 0.00944267
internal_weight=0 4634.19 4515.12 4188.25 3413.96 1957.32 854.457 747.038 1886.31 1819.23 2559.51 1085.75 1473.76 327.262 1146.5 341.016 628.628 454.7 303.661 253.403 851.526 265.628 447.422 306.596 326.87 171.556 155.314 774.284 418.097 356.187
internal_count=26491 18609 18132 16814 13704 7882 3435 3004 7597 7325 10269 4356 5913 1316 4597 1368 2529 1825 1219 1017 3418 1069 1797 1240 1318 692 626 3110 1678 1432
is_linear=0
shrinkage=0.03


Tree=17
num_leaves=31
num_cat=0
split_feature=1 53 15 53 15 15 7 38 15 41 35 14 56 22 35 19 49 40 17 37 2 19 52 15 18 17 14 40 55 35
split_gain=49.0843 33.8931 40.2374 36.6317 34.03 27.8611 44.7844 49.2033 30.4459 28.1922 25.2712 24.5468 23.93 23.8705 23.7022 21.8856 27.4723 34.5571 25.3759 26.1364 43.3495 31.3378 24.9529 23.206 22.6218 22.3835 20.8963 20.0025 26.8015 22.6363
threshold=-0.65295500212971103 1.3964215072028219 -0.55833696461483362 -0.9658993592857128 -0.80743950417580967 -0.12535920102333337 -0.65890139704601558 -0.60655097535300306 2.625565799050269 -1.3132667607976016 -0.33216243720798655 0.93565071311360748 2.2010469439403533 -0.22636462517290687 -1.0266531090287672 0.020539588429237834 0.72323328749839311 -0.47234908603334796 -0.77301275470241737 0.055034850281797103 -0.59409986369822088 -0.65395457962733794 0.22662111718142355 -1.1337747749822238 0.64798349744866479 -0.57256000060014356 0.3252189082391902 -1.1845364507130467 0.34074577515919607 -0.30021100018988928
decision_type=2 2 2 2 2 2 2 2 2 2 2 2 2 2 2 2 2 2 2 2 2 2 2 2 2 2 2 2 2 2
left_child=1 2 3 -1 -5 12 -7 9 27 10 -8 14 15 -11 -4 16 18 24 23 20 -20 -21 -17 26 -18 -19 -2 -9 29 -29
right_child=5 -3 11 4 -6 6 7 8 -10 13 -12 -13 -14 -15 -16 22 17 25 19 21 -22 -23 -24 -25 -26 -27 -28 28 -30 -31
leaf_value=0.016431369865335482 0.017965817274522875 -0.015792920544894951 -0.0014831690036431889 0.0062331400624993519 -0.017638120365807874 0.0032376266843332367 -0.015167180256099521 -0.014833585994090619 0.017901948317373878 -0.0086852875374869801 0.008365505580173618 0.00018594795806545827 0.01565848789824633 -0.028625719471540224 0.014125051604333834 0.0023710028862367278 -0.0067951361764697791 0.017353518932878554 -0.015129335884121025 -0.012969510980933874 0.012747372523229451 0.0042051807299599078 -0.011791023727468524 -0.0059064506969183387 0.0095185435164678416 0.0017349552027647157 -0.0040590786787975605 -0.014949923046483847 0.0017707405981317406 -0.0024215792590229403
leaf_weight=61.112224727869034 71.618920594453812 59.63458164036274 100.23626479506493 81.670218676328659 141.35775198042393 636.97935515642166 89.919003546237946 135.85398453474045 53.986001655459404 91.199848040938377 68.0991051197052 200.14910885691643 90.119522139430046 152.49816353619099 641.77902248501778 194.71721811592579 203.58537666499615 261.55490310490131 54.348540171980858 144.21968768537045 342.71645021438599 261.68646301329136 254.03509733080864 792.37410271167755 115.83994029462337 121.39376990497112 75.453231006860733 216.2972187846899 562.58796226978302 319.70028449594975
leaf_count=249 288 239 403 328 567 2563 361 545 217 368 274 807 366 615 2591 782 817 1052 218 579 1377 1050 1019 3180 465 487 303 868 2259 1285
internal_value=0 0.00545506 0.00654827 -0.00330267 -0.00895174 -0.00106648 -0.00352327 -0.00607335 -0.00318767 -0.0151756 -0.00508007 0.00952089 0.00085239 -0.021488 0.0120208 0.000365038 0.00148537 0.00647155 -0.000537347 0.00336735 0.00879103 -0.0019806 -0.00568759 -0.00387496 -0.000823443 0.0124886 0.00690432 -0.00417849 -0.00279961 -0.00756873
internal_weight=0 1285.94 1226.3 284.14 223.028 5310.78 2327.12 1690.14 1288.43 401.716 158.018 942.164 2983.66 243.698 742.015 2893.54 2444.79 702.374 1742.42 802.971 397.065 405.906 448.752 939.446 319.425 382.949 147.072 1234.44 1098.59 535.998
internal_count=26522 5184 4945 1144 895 21338 9355 6792 5174 1618 635 3801 11983 983 2994 11617 9816 2821 6995 3224 1595 1629 1801 3771 1282 1539 591 4957 4412 2153
is_linear=0
shrinkage=0.03


Tree=18
num_leaves=31
num_cat=0
split_feature=50 15 47 34 1 0 56 40 53 7 47 58 23 2 56 47 15 38 50 56 47 32 9 56 4 9 17 15 55 23
split_gain=45.6982 46.2949 31.8188 33.0867 29.4741 29.2086 28.8818 26.858 26.3934 26.3626 25.4486 25.4273 25.1789 25.7497 48.8202 26.8878 25.1287 24.442 24.3531 22.92 22.7623 23.4482 29.7896 35.3175 22.6795 25.6285 24.2733 26.8575 25.4451 28.6292
threshold=0.12696281870941178 -0.0858586610115286 0.13137864683842007 0.92832874172291924 -0.70444132202258347 -0.76510127855277021 0.45774913484765611 0.18302108184280882 -0.4699579050525366 -0.75140041723760242 1.4167602628677907 0.67101995928027469 2.1172211913798331 -0.51335693666146465 0.73753755175441305 1.3720768100027534 1.1132000716086401 -0.69784707189752415 -0.82108942058980317 0.1293364482335406 -1.7119202944965308 0.85056821428847973 0.73816994446659923 0.03049363539455369 0.52121894296337079 0.62977652642428716 -0.81586212373534639 -0.84986361311351444 0.013646889405172774 -0.46118529034078976
decision_type=2 2 2 2 2 2 2 2 2 2 2 2 2 2 2 2 2 2 2 2 2 2 2 2 2 2 2 2 2 2
left_child=2 6 3 4 5 11 7 -2 16 10 -3 -1 13 14 19 -15 -4 -17 -5 -11 -6 22 -22 -24 25 26 27 -8 29 -28
right_child=1 9 8 18 20 -7 24 -9 -10 12 -12 -13 -14 15 -16 17 -18 -19 -20 -21 21 -23 23 -25 -26 -27 28 -29 -30 -31
leaf_value=-0.006100925208669658 -0.01168565014391745 -0.0032348944982606332 -0.0074110427852189589 0.016987589167065359 -0.015992944552889833 0.017501666812754838 0.0057141007290233059 0.0029210570607356933 0.0092153187566113987 -0.0028277056629613761 0.01622017452807081 0.013483918628287093 0.010564996744349089 -0.015471392194572017 -0.017876377320200944 -0.01552782749071965 0.012099459441419812 0.007000628598984376 0.0039371199096871852 0.019500342901620973 0.0017596704757125714 0.009386731754213621 -0.016853236437414362 0.0084392064904445906 0.018912607869054254 -0.0092069868378493978 -0.003417420933739106 -0.011184919212661246 0.0022716036507988749 0.019923599349018769
leaf_weight=139.10268206894398 254.4627700895071 326.65312097966671 570.56102569401264 269.30590178072453 65.551840588450432 204.21200297772884 175.03670892119408 198.19335907697678 129.40995775163174 78.528406724333763 69.018540889024734 96.975661292672157 53.822393462061882 599.7913321107626 95.630296945571899 66.701162531971931 61.728361278772354 104.82109539210796 249.75761039555073 79.927352249622345 1229.8108995109797 272.46727925539017 170.16775813698769 65.796853452920914 75.852127432823181 142.95418612658978 59.393992036581039 155.06048187613487 335.75631958246231 204.26475718617439
leaf_count=562 1020 1314 2289 1094 263 830 702 795 520 315 277 392 216 2414 384 268 248 421 1005 321 4938 1096 682 264 308 575 238 622 1349 822
internal_value=0 -0.00248016 0.00251997 0.00401518 0.00242401 0.00933645 0.00105248 -0.00532813 -0.00289488 -0.00630539 0.000318792 0.00205689 -0.00872426 -0.00978309 -0.00146278 -0.0124969 -0.00542631 -0.00195186 0.0108056 0.00868687 0.000715595 0.00138976 -0.000123618 -0.00977187 0.00357985 0.00241268 0.00423942 -0.00227252 0.00781468 0.0146999
internal_weight=0 3075.87 3524.85 2763.15 2244.08 440.29 1600.97 452.656 761.699 1474.89 395.672 236.078 1079.22 1025.4 254.086 771.314 632.289 171.522 519.064 158.456 1803.79 1738.24 1465.78 235.965 1148.32 1072.47 929.512 330.097 599.415 263.659
internal_count=26544 12361 14183 11126 9027 1784 6431 1815 3057 5930 1591 954 4339 4123 1020 3103 2537 689 2099 636 7243 6980 5884 946 4616 4308 3733 1324 2409 1060
is_linear=0
shrinkage=0.03


Tree=19
num_leaves=31
num_cat=0
split_feature=4 53 19 3 41 38 56 56 9 47 53 34 9 13 19 17 52 56 20 41 19 49 34 9 10 2 10 56 22 38
split_gain=44.4911 35.3024 34.509 33.3553 35.308 39.9985 44.7812 31.9364 29.5413 48.7963 29.2477 28.2808 33.6871 27.1093 26.8639 24.4211 23.3817 22.9973 22.9382 27.496 22.2447 22.8033 21.8439 21.6398 24.5516 23.4658 33.3796 21.5863 21.8594 21.5231
threshold=0.88979599403473231 -0.17956025282323304 -0.33228756087835198 -0.50446650666043202 -1.5017367486016207 -0.23564875540578717 1.1018206259780696 0.72239241176980118 -0.95488130482623024 0.10131123000449087 1.9585051987243287 0.37735960338265639 0.64169299783357514 1.0747364089275229 0.75155470579389039 -0.21285126103121446 -0.84569447146671795 -1.4649003085906431 -0.61339308017312244 0.59012809276347122 -0.74633228801189189 -0.91145418726977179 -0.68795736769553339 0.877969898503275 0.52581999490548226 -0.17237661100394816 -0.10117950608940061 0.14209032953424039 -0.42076670129775223 -0.3193208766412336
decision_type=2 2 2 2 2 2 2 2 2 2 2 2 2 2 2 2 2 2 2 2 2 2 2 2 2 2 2 2 2 2
left_child=1 8 23 7 -5 15 16 -4 17 11 -9 12 18 20 -13 -6 -7 -1 19 -10 -11 -22 -18 24 25 26 -3 28 -23 -27
right_child=-2 2 3 4 5 6 -8 10 9 13 -12 14 -14 -15 -16 -17 22 -19 -20 -21 21 27 -24 -25 -26 29 -28 -29 -30 -31
leaf_value=-0.0049996888322771634 0.0085132595703937379 0.018505344351975588 0.010413645682485278 0.0029803695359413352 -0.00027123691370212796 0.0053869785440127591 0.021726958261905634 -0.016013781802538919 0.0064256761474437213 -0.00077906286232222238 0.0081010537902433677 0.0044670289524668403 -0.0071559591478462803 0.012467180012517344 0.019830021754342585 -0.018007536474740651 -0.0024983423892787271 0.013147720769172524 0.0045426749771431078 -0.015667323058010035 0.0048167046911412222 -0.0057677587170384742 -0.018978494519884103 -0.017104330540806973 0.01252532154435477 -0.0070792610928768415 -0.0034130479729505658 0.0010717919756431363 -0.025283939550882734 0.0030237519804004152
leaf_weight=77.308243900537491 486.2341875731945 121.71351304650307 184.14175578951836 199.0750520080328 80.594521671533585 95.790599599480629 49.790295884013176 115.19536189734936 83.40987566113472 185.25845751166344 68.681533962488174 568.6946275383234 424.02377405762672 52.47770868241787 121.36633685231209 527.64912164211273 135.6109099984169 285.44095078110695 980.63540375232697 116.21291950345039 50.369554802775383 75.372301384806633 154.63029076159 54.871626377105713 149.58880609273911 449.53896214067936 120.86184795200825 52.181634947657585 188.24769449234009 321.99261081218719
leaf_count=313 1967 490 739 803 323 384 200 462 336 743 276 2294 1705 211 491 2127 544 1150 3941 467 202 302 620 220 601 1804 485 210 755 1293
internal_value=0 -0.00087195 -0.00332093 -0.00619517 -0.00853602 -0.0107356 -0.00373723 0.00172048 0.00125498 0.000238226 -0.00703042 0.00223756 4.74472e-05 -0.00731357 0.00729225 -0.0156788 -0.00725741 0.0092648 0.00265464 -0.0065046 -0.00929115 -0.0135292 -0.0114511 0.000489111 0.00138832 -0.000307868 0.00773625 -0.0164848 -0.0199152 -0.00287053
internal_weight=0 6090.73 2829.73 1611.16 1243.14 1044.07 435.822 368.019 3261 2898.25 183.877 2294.34 1604.28 603.907 690.061 608.244 386.032 362.749 1180.26 199.623 551.43 366.171 290.241 1218.57 1163.7 1014.11 242.575 315.802 263.62 771.532
internal_count=26458 24491 11371 6478 5001 4198 1748 1477 13120 11657 738 9234 6449 2423 2785 2450 1548 1463 4744 803 2212 1469 1164 4893 4673 4072 975 1267 1057 3097
is_linear=0
shrinkage=0.03


Tree=20
num_leaves=31
num_cat=0
split_feature=50 15 3 47 15 43 53 34 13 4 47 32 3 38 44 50 47 43 35 57 47 15 50 43 16 37 22 21 23 38
split_gain=44.4232 37.306 35.1318 25.9316 27.0045 26.0388 30.3945 25.0086 24.4002 22.7505 36.8453 24.509 25.1576 41.7514 29.0169 32.1539 25.4829 31.754 30.433 21.898 21.2257 20.8478 20.5726 20.4948 23.1401 30.3141 20.217 19.8581 26.3265 20.5126
threshold=0.091739304713058009 -0.19637039985005744 -0.77627467177735099 0.10131123000449087 -0.56411153568021066 0.80695883656442746 -0.62405661927011979 0.92832874172291924 0.2680224805750171 0.88979599403473231 0.60661070040074672 1.1335179356305101 -0.51036304479092842 -0.72433969279996735 1.3760003500432554 1.7677734904396103 1.2413672312343986 -0.16501491800747578 1.0594782819994972 -0.3120390179100887 0.17313899205375619 0.36389837236745709 -0.82108942058980317 -0.61933039261629197 0.58082000843863379 0.64844964658667659 -0.60057703855759326 -0.28849310936282652 -0.0092935975385472838 0.71600160948128466
decision_type=2 2 2 2 2 2 2 2 2 2 2 2 2 2 2 2 2 2 2 2 2 2 2 2 2 2 2 2 2 2
left_child=2 -2 -1 7 20 8 -7 23 -6 11 -11 12 14 21 -3 -16 17 18 -15 -18 -5 -14 -9 24 25 -4 -13 29 -29 -25
right_child=1 9 3 4 5 6 -8 22 -10 10 -12 26 13 16 15 -17 19 -19 -20 -21 -22 -23 -24 27 -26 -27 -28 28 -30 -31
leaf_value=0.021898584878290286 0.00088543135701068404 0.0083620845287800845 -0.0027515943468991639 0.0029972405783872435 0.011309629868554199 -0.021245460514125358 0.0045893205503048018 0.015348213718587488 -0.0037964957825378075 -0.013109820164465326 0.017721845419247886 0.014292954247879261 -0.010612101390109952 -0.0080633721924578215 -0.023216569070050062 0.0047987328112333687 -0.012847331181126657 -0.016933773670945205 0.014749753492673167 0.0076301517160218477 -0.018532193435964187 -0.026033138756691897 0.003061641051062958 0.0042004031582873035 -0.0097938101379248729 0.019113355646697704 -0.006531652350683829 0.0099473279884501088 0.00078478434726936221 -0.0086527064020747047
leaf_weight=75.201033294200897 1440.7699990719557 159.72699664533138 241.59202106297016 55.645112603902817 210.28643530607224 86.120908856391907 71.790126472711563 244.32187962532043 170.51611505448818 52.543452560901642 84.729787454009056 82.206961244344711 162.48222191631794 203.12221309542656 72.712506607174873 67.437613785266876 59.253831177949905 266.14435862004757 65.532172232866287 170.80667580664158 141.19544556736946 172.79927542805672 247.54365539550781 232.90628401935101 251.42207500338554 69.34753742814064 76.651964440941811 594.97067810595036 534.66613069176674 206.10858635604382
leaf_count=306 5790 641 972 223 845 345 289 995 685 211 341 331 654 816 292 271 238 1069 263 686 566 704 997 939 1010 279 308 2401 2146 829
internal_value=0 -0.00266382 0.00227095 0.00179956 -0.00316328 0.000340202 -0.00971997 0.0031947 0.00458386 -0.00567242 0.00587456 -0.00670477 -0.0079704 -0.0100615 -0.000259606 -0.0100352 -0.00612241 -0.00968756 -0.0023308 0.00219493 -0.0125225 -0.0188256 0.00925772 0.00177688 -0.00311766 0.00235016 0.00435205 0.0035359 0.00563319 -0.00186336
internal_weight=0 3136.92 3433.63 3358.43 735.554 538.714 157.911 2622.88 380.803 1696.15 137.273 1558.88 1400.02 1100.14 299.877 140.15 764.859 534.799 268.654 230.061 196.841 335.281 491.866 2131.01 562.362 310.94 158.859 1568.65 1129.64 439.015
internal_count=26442 12615 13827 13521 2953 2164 634 10568 1530 6825 552 6273 5634 4430 1204 563 3072 2148 1079 924 789 1358 1992 8576 2261 1251 639 6315 4547 1768
is_linear=0
shrinkage=0.03


Tree=21
num_leaves=31
num_cat=0
split_feature=50 41 4 1 17 56 32 38 44 4 41 13 18 22 41 46 47 52 32 1 47 10 1 56 8 50 49 52 6 38
split_gain=48.1103 31.5348 42.9362 28.2478 34.7505 31.3451 28.4168 43.1828 40.4305 27.4572 26.4087 25.9349 39.3269 28.8529 25.8565 27.24 30.7391 26.089 32.7235 25.079 24.7688 23.8379 31.7145 30.7629 21.385 21.3454 20.9387 28.0345 19.7372 30.5241
threshold=0.12696281870941178 -1.507195366773187 -0.31483025562747807 -0.50532502471305374 -0.55526454177735773 -0.058783538493052102 1.3858423313543862 -0.72433969279996735 1.7472344754172904 -0.35352152582255042 -1.2214202505439753 -0.38423687086214026 -0.19481490582189095 0.054813669485899864 -1.3920119269078637 0.64982447614442107 0.37776429578113196 0.29491848336467202 -0.20666456639835828 0.13294479331918579 1.2910619534378507 0.36363253497816728 -0.31059548592757541 -1.0440219020375008 1.0254142831313982 -1.1468301900920319 0.74706847706588497 0.82675415739139846 0.61605364396794948 0.2269301070566774
decision_type=2 2 2 2 2 2 2 2 2 2 2 2 2 2 2 2 2 2 2 2 2 2 2 2 2 2 2 2 2 2
left_child=11 2 -2 -3 5 -5 7 9 14 -6 20 12 25 28 -9 16 -16 -17 -19 -7 -11 24 23 -23 -15 -1 27 -14 -13 -30
right_child=1 3 -4 4 6 19 -8 8 -10 10 -12 13 26 21 15 17 -18 18 -20 -21 -22 22 -24 -25 -26 -27 -28 -29 29 -31
leaf_value=0.0032823684406740692 -0.0047324573978719956 0.0020122100636909778 0.014053272299630269 0.020272257043406565 0.0027450214930690095 0.0082004452106985981 0.010126545782258427 0.011616630884861579 0.012152956269053217 0.0032893577802300599 -0.028443687538244059 0.0089344167779004478 0.0036009454810290078 0.014548038227539683 -0.0038026086190956678 0.0070178957864498017 -0.018616415613191342 0.002712457657143297 -0.023928759354999583 -0.0057674349531751656 -0.020601194854556231 -0.01335376942302539 -0.012851419163954958 0.014410211688365322 -0.0076261140111028893 -0.011455553561196657 0.009712210585366466 -0.0086653344609033886 0.011724515611587329 -0.0071826771709578418
leaf_weight=115.78577190637589 213.2164634168148 560.16880868375301 216.07584302127361 58.971191421151161 50.957181796431541 155.7564575523138 69.281772255897522 54.280489236116409 98.226393073797226 63.396186858415604 178.17762242257595 1078.4247820228338 604.97312138974667 121.8397950977087 205.94896575808525 149.68664360046387 333.15004980564117 84.462256729602814 74.878922566771507 408.8032394349575 91.891613647341728 50.125887855887413 212.5852288454771 99.367640033364296 52.886545151472092 345.29807394742966 275.37741750478745 226.27387256920338 122.69613833725452 187.99904069304466
leaf_count=468 855 2251 879 237 205 627 279 218 394 256 726 4357 2435 489 827 601 1338 339 301 1637 370 201 853 399 212 1386 1110 909 496 758
internal_value=0 -0.00272527 0.00477591 -0.00395268 -0.00556171 0.000363597 -0.00809466 -0.00903925 -0.00570518 -0.017533 -0.0206265 0.00241956 -0.000445662 0.00474698 -0.00770528 -0.00900272 -0.0130441 -0.00185705 -0.0101541 -0.00187567 -0.0110495 -0.00115288 -0.00552595 0.00496993 0.00781088 -0.00775911 0.00262274 0.000230093 0.00702285 0.000351369
internal_weight=0 3067.33 429.292 2638.04 2077.87 623.531 1454.34 1385.06 1000.63 384.423 333.465 3493.63 1567.71 1925.93 902.407 848.127 539.099 309.028 159.341 564.56 155.288 536.805 362.079 149.494 174.726 461.084 1106.62 831.247 1389.12 310.695
internal_count=26413 12340 1734 10606 8355 2501 5854 5575 4018 1557 1352 14073 6308 7765 3624 3406 2165 1241 640 2264 626 2154 1453 600 701 1854 4454 3344 5611 1254
is_linear=0
shrinkage=0.03


Tree=22
num_leaves=31
num_cat=0
split_feature=3 44 22 41 40 44 0 13 46 44 47 40 15 13 44 0 20 41 41 7 47 11 40 41 46 49 8 56 47 17
split_gain=40.2835 30.6452 37.8817 29.3708 30.4696 29.7765 25.7738 24.6687 29.3528 25.6045 42.0437 22.3115 21.5362 29.516 22.6145 25.4742 28.6416 25.6247 20.8901 20.7207 23.1987 20.6665 19.8479 19.8036 34.4253 26.4917 22.5032 24.3436 22.7148 22.5673
threshold=-0.77627467177735099 -0.56446520488761875 0.049926406337689334 -1.507195366773187 0.72623476272727705 1.4197438164665017 0.78066053502534316 -0.82674194722410144 0.11445166927707563 -0.28884627557751413 -0.2586623265886579 -1.3545529242957384 0.41354275380799266 1.7485151682579303 -1.208894597449458 -0.53532352000963834 -0.50579448852650832 0.54870908317044187 0.49944195503009592 -1.4529169075985198 -1.1381339667410193 -0.27146219076777228 -0.32795218919965957 -0.96307613161615913 0.49932339437450846 -1.5743873625350997 -0.62908118532388657 0.46572019667266534 0.31053032967218547 0.19837728131754059
decision_type=2 2 2 2 2 2 2 2 2 2 2 2 2 2 2 2 2 2 2 2 2 2 2 2 2 2 2 2 2 2
left_child=-1 2 12 -3 7 -6 -4 8 18 11 -11 -9 14 -14 -2 17 -17 22 -5 -13 -21 -7 -16 24 25 -12 28 29 -25 -28
right_child=1 3 6 4 5 21 -8 9 -10 10 23 19 13 -15 15 16 -18 -19 -20 20 -22 -23 -24 26 -26 -27 27 -29 -30 -31
leaf_value=0.020863586047951833 0.013923413340020922 0.0056726884438420902 -0.0046767677400277865 0.021636316434074408 0.0043036230490397145 0.0024848871389463057 0.012707839158633404 -0.024893608140015237 -0.0052087531431217879 0.011012916088830087 0.0078562047980317573 0.0082298929114706966 0.017071364442681657 -0.0046152828381199173 -0.017306609268727478 -0.0046236952325465815 0.012023039754193452 0.004204839491248385 -0.00071201912868270093 0.0090517059229523449 -0.011194263494671194 -0.01747580900184259 -0.0017555521552994693 0.021768707748041124 0.00093769381508879417 -0.013864037045567384 -0.013198465117829867 0.010276079318176642 -0.00085538225314275981 0.00047580666595363621
leaf_weight=77.859979838132858 156.92162349820137 432.5128585845232 689.37224619090557 91.528266444802284 835.45207434892654 80.268922284245491 81.449622496962547 73.994281783699989 158.96639406681061 166.76961345970631 52.684737503528595 61.590965956449509 247.53060555458069 70.393248111009598 123.14356598258018 127.94801919162273 315.29963175952435 280.17417345941067 61.200417712330818 52.027506113052368 588.3363451808691 103.01171976327896 177.41270405054092 65.623818829655647 281.52993342280388 523.55060602724552 224.87160012125969 86.930885151028633 91.097515538334846 205.2906382381916
leaf_count=318 641 1749 2765 367 3359 322 327 298 638 673 212 248 1006 286 496 514 1269 1130 246 209 2365 414 717 265 1131 2108 904 349 366 828
internal_value=0 -0.000186714 0.0026229 -0.00169298 -0.00253664 0.00189628 -0.00276975 -0.00415808 0.00374909 -0.00515973 -0.00308117 -0.00966028 0.00539624 0.0122725 0.00350106 0.00184398 0.00721981 -0.00228579 0.0129424 -0.0078898 -0.00949196 -0.00890006 -0.00830605 -0.00464668 -0.00765676 -0.0118277 -0.00078669 -0.00381006 0.00899813 -0.00674207
internal_weight=0 6506.88 2269.65 4237.24 3804.73 1018.73 770.822 2785.99 311.695 2474.3 1698.35 775.949 1498.82 317.924 1180.9 1023.98 443.248 580.73 152.729 701.955 640.364 183.281 300.556 1531.58 857.765 576.235 673.814 517.093 156.721 430.162
internal_count=26520 26202 9151 17051 15302 4095 3092 11207 1251 9956 6836 3120 6059 1292 4767 4126 1783 2343 613 2822 2574 736 1213 6163 3451 2320 2712 2081 631 1732
is_linear=0
shrinkage=0.03


Tree=23
num_leaves=31
num_cat=0
split_feature=6 1 30 40 41 41 43 40 58 4 38 17 43 49 15 41 53 46 35 10 20 17 2 35 53 56 20 53 4 55
split_gain=36.7792 27.6003 27.2755 26.9306 28.3789 24.1974 23.2083 22.4576 21.638 21.5056 33.8561 20.1304 19.8225 19.772 16.4468 27.6731 25.6828 23.0552 16.3114 16.2624 16.0964 22.8912 14.6079 20.9937 16.83 14.2569 13.9704 19.1887 14.3895 13.8494
threshold=0.022817000234985917 -0.65083130940450051 -0.54209839140961025 -1.1845364507130467 0.044575558612999826 -1.2943655465656712 -0.92308990897129173 -0.41883908344271031 1.1560064609973906 -0.28530573298071177 1.032012274546372 -0.62819534575212577 -1.3208290024797544 -0.23275023094181702 0.50392201523715796 -1.5607615525820056 -0.17956025282323304 0.64405864198058338 1.3514680248555979 0.20929906988310201 0.15646691041240698 0.16425108771384259 -0.67507227263970748 0.025189124569197092 -1.1858214758297314 -0.58807009233734209 -0.42466666990287344 -0.50682502236699778 -0.31840741780326826 0.3548417750480643
decision_type=2 2 2 2 2 2 2 2 2 2 2 2 2 2 2 2 2 2 2 2 2 2 2 2 2 2 2 2 2 2
left_child=3 8 20 12 5 -5 13 -8 22 -6 19 -12 -1 -7 15 -4 17 25 -14 -11 21 -3 24 -24 -2 -16 -26 29 -29 -28
right_child=1 2 14 4 9 6 7 -9 -10 10 11 -13 18 -15 16 -17 -18 -19 -20 -21 -22 -23 23 -25 26 -27 27 28 -30 -31
leaf_value=0.011651122415228228 0.0078209731433691726 -0.010469109597358847 0.015986712286451162 0.0056616791399189941 0.0032710181985112067 -0.0001105335331141655 -0.0092439638683935749 0.0023854172311365074 0.0173247457642659 0.0098140755415304405 -0.0147299204258237 0.0068334692771229244 -0.0048153720231296094 -0.021564303532846198 -0.0044973358802766813 -0.0050291173311940301 -0.017706131003504728 -0.018176127848545949 -0.02240749705918945 0.022788820814240707 0.0048387846050455098 0.0060564918250740974 -0.0035726038858131443 0.020080453586083704 0.0049205038777944037 0.013170912750243069 -0.0068588544436155186 -0.011818636501270222 0.0081626808175561394 -0.027851814910594953
leaf_weight=50.308261603116989 119.14364156126976 190.03620380163193 54.148159936070442 427.48375163972378 1097.7093076407909 63.336956724524498 198.90344882011414 554.87521640956402 78.509346857666969 218.61139932274818 56.048209086060524 102.78657372295856 298.81342777609825 94.449512511491776 97.699683144688606 1299.8392451405525 228.87295956909657 62.186974257230759 52.550993651151657 157.0370407551527 421.08966155350208 118.83800818026066 58.522587805986404 70.866144403815269 87.538177520036697 63.841857001185417 63.046603575348854 51.838974669575691 70.566663309931755 53.763538047671318
leaf_count=203 488 764 220 1722 4425 255 801 2231 318 882 226 416 1203 381 393 5222 925 250 211 637 1694 480 235 285 353 257 254 208 285 217
internal_value=0 -0.00242629 -0.00384176 0.00206354 0.00305036 -0.00018814 -0.00294737 -0.000723979 0.00305284 0.00569968 0.0106111 -0.000992946 -0.00518389 -0.0132205 -0.00581476 -0.00413293 -0.0107459 -0.00339426 -0.00772397 0.0154662 0.00104757 -0.00411576 0.000972655 0.00964728 -0.00162358 0.00267102 -0.0051333 -0.00883778 -0.000431163 -0.0172678
internal_weight=0 3190.35 2536.55 3372.91 2971.24 1339.05 911.565 753.779 653.796 1632.19 534.483 158.835 401.673 157.786 1806.59 1353.99 452.601 223.729 351.364 375.648 729.964 308.874 575.286 129.389 445.898 161.542 326.754 239.216 122.406 116.81
internal_count=26441 12848 10205 13593 11976 5390 3668 3032 2643 6586 2161 642 1617 636 7267 5442 1825 900 1414 1519 2938 1244 2325 520 1805 650 1317 964 493 471
is_linear=0
shrinkage=0.03


Tree=24
num_leaves=31
num_cat=0
split_feature=3 6 10 47 56 32 13 44 13 47 43 32 3 4 9 9 55 20 56 20 35 15 10 18 9 9 42 19 37 47
split_gain=34.4728 28.0967 31.2234 34.8269 27.6892 24.1486 23.6587 23.6303 23.4443 20.3402 22.6492 25.3289 23.2852 17.9088 19.9331 21.4224 17.7694 17.6608 23.6347 17.4351 19.1013 23.99 19.661 20.8483 18.0484 16.5267 15.8789 15.7652 21.1917 15.74
threshold=-0.77627467177735099 0.022817000234985917 -0.39685880824879044 1.4167602628677907 2.5469963321279767 1.9484124972379135 1.7485151682579303 -0.47253091236992512 -1.0841575229232931 1.3248877224685092 -1.0269147222593502 0.85056821428847973 -0.65235002404657327 1.4636161382647417 0.84333083147286769 1.9222740794066893 0.33216554618374883 0.097750587584441759 -0.022913150086393184 -1.8518195067216972 -0.68792142281554525 0.3759499793438637 -1.0707704809650254 -0.55905793559228056 -0.93546083775961841 0.6942893684430167 0.21435316878451552 0.95964847893728067 -0.62645801543622837 1.0722378878809014
decision_type=2 2 2 2 2 2 2 2 2 2 2 2 2 2 2 2 2 2 2 2 2 2 2 2 2 2 2 2 2 2
left_child=-1 2 3 7 6 8 9 -2 -4 10 12 25 -3 14 27 -16 26 -14 -19 -9 24 22 -22 -24 -21 29 -13 -10 -29 -12
right_child=1 4 5 -5 -6 -7 -8 19 13 -11 11 16 17 -15 15 -17 -18 18 -20 20 21 -23 23 -25 -26 -27 -28 28 -30 -31
leaf_value=0.019089260758245161 0.0024884254726485651 0.0062400291125190195 0.020474041073203587 0.011839186996067666 0.016606888838921963 0.019366220881514688 -0.01375642939363817 0.0046098415340609699 0.0021865621165984596 -0.0088267482804192006 -0.00057844328632519336 0.0093346081313279428 -0.020188026018148113 0.013333070451777786 -0.0095307148853387147 0.010601015942034308 0.01651551437004314 -0.016188406916993987 0.0035776794279934639 0.0076758269718275101 0.0071403544633726578 -0.026310004326801299 -0.020383915226885329 0.0013944754892905597 -0.0085512831085906866 -0.0062988112956471852 -0.0088459725931265866 0.02725007667051187 0.0034170678772204527 0.010557997150898651
leaf_weight=79.467971250414848 317.50759808719158 84.79871754348278 63.169873669743538 132.77955946326256 63.788333564996719 81.287625551223755 158.54803103208542 91.590900346636772 1514.841284006834 343.55039721727371 1328.9677586555481 97.586325824260712 117.55077035725117 125.54726076126099 226.84643736481667 55.426309749484062 126.19762282073498 96.70844866335392 114.02916766703129 87.20303575694561 52.524368524551392 96.873244941234589 114.86868286132812 58.139112338423729 183.22930559515953 428.53482702374458 69.862120240926743 50.003663077950478 90.601792752742767 119.92677633464336
leaf_count=326 1282 342 255 534 260 330 639 368 6099 1381 5350 393 473 509 914 224 509 388 459 351 211 393 462 234 737 1727 281 202 367 483
internal_value=0 -0.000200129 0.00171453 -0.00232317 -0.00223123 0.00379037 -0.00264681 -0.00424948 0.00315092 -0.00202275 -0.0011029 0.000128106 -0.00749691 0.00257233 0.00184261 -0.00546199 0.00824445 -0.0110856 -0.00565803 -0.00737058 -0.00924457 -0.0141259 -0.00843528 -0.0132317 -0.00327437 -0.00115989 0.00171283 0.00310083 0.0125375 0.000376473
internal_weight=0 6492.49 3342.44 1134.72 3150.05 2207.72 3086.26 1001.94 2126.44 2927.71 2584.16 2171.08 413.087 2063.27 1937.72 282.273 293.646 328.288 210.738 684.429 592.838 322.405 225.532 173.008 270.432 1877.43 167.448 1655.45 140.605 1448.89
internal_count=26483 26157 13472 4572 12685 8900 12425 4038 8570 11786 10405 8743 1662 8315 7806 1138 1183 1320 847 2756 2388 1300 907 696 1088 7560 674 6668 569 5833
is_linear=0
shrinkage=0.03


Tree=25
num_leaves=31
num_cat=0
split_feature=50 23 10 35 15 41 4 50 19 1 44 4 15 15 38 41 47 32 47 41 41 19 56 50 4 47 47 15 38 35
split_gain=36.6739 26.5801 30.935 24.4401 22.8612 22.3615 39.9246 32.224 51.4084 32.2061 31.6122 39.7208 24.4506 23.9219 23.6076 23.9281 27.4022 21.9634 32.2859 24.5872 21.6399 27.4915 23.1689 27.0353 24.0554 21.8406 24.249 25.3851 20.5969 19.7002
threshold=-1.1468301900920319 0.017592440782991988 0.32950496177618155 -0.46768119093568278 -0.90773902875837875 -1.507195366773187 -0.31483025562747807 0.40655768800087838 -0.1543602416504439 -0.22393051532913608 0.62933023503613705 -0.31840741780326826 0.3413359121993767 -0.84986361311351444 -0.18552185869446522 -1.3037136586922489 -1.0228756188560604 0.85056821428847973 -1.5498904068087318 0.059315184904909772 1.6922203605330195 -0.71797965636160088 1.0221087881368605 0.26842714128550466 -0.34733407003415323 0.85383159389048668 0.17773258921511617 -0.56411153568021066 1.5035477665437587 1.2365191209354098
decision_type=2 2 2 2 2 2 2 2 2 2 2 2 2 2 2 2 2 2 2 2 2 2 2 2 2 2 2 2 2 2
left_child=1 3 -3 -1 -5 6 12 10 9 -9 17 -12 -2 -11 15 -10 -17 18 -7 -19 22 -22 23 25 -25 26 29 -28 -21 -20
right_child=5 2 -4 4 -6 7 -8 8 14 13 11 -13 -14 -15 -16 16 -18 19 20 28 21 -23 -24 24 -26 -27 27 -29 -30 -31
leaf_value=0.00071104833990516319 0.0034415595353152854 0.0062890797870601214 -0.017579557231756467 -0.0019864922568209186 0.016464484639713225 -0.019330024496891994 0.014602892704776486 0.010748584497749096 -0.0037320033671871121 0.0064354023570009746 -0.0015402274546304634 0.0306740400132645 -0.018114922686336864 -0.0056799494160457631 0.0018925112830742059 0.0016331439686786649 -0.018123754500758035 -0.0020992701778353366 0.0019304745309687869 0.013001339822331974 -0.006760710169368596 0.01947094026702938 0.017592961187956526 0.00066216413646867688 -0.019222747260383581 0.011922205435227401 -0.019388651478977545 -0.003394129595726365 -0.00072616604994588487 -0.0061851696103892191
leaf_weight=215.75573520362377 140.35568806529045 112.12423512339592 79.221864774823189 72.328314855694771 333.94722282886505 84.398200541734695 215.86932595074177 200.50121615827084 232.90464021265507 191.94969384372234 68.773193955421448 63.117784664034843 65.554849252104759 573.22513024508953 131.06391851603985 72.505849465727806 448.08212062716484 328.09976576268673 1156.5587340891361 305.20441827178001 53.473147690296173 93.284985303878784 49.837268352508545 86.817377433180809 141.76563715934753 105.74032007157803 120.15018305182457 322.05721199512482 143.30517400801182 345.40272489190102
leaf_count=872 563 452 319 294 1365 339 881 808 938 770 276 255 263 2301 526 291 1814 1319 4651 1236 215 378 201 349 571 425 482 1294 578 1387
internal_value=0 0.0059141 -0.00378912 0.00890537 0.0131955 -0.000873894 0.00573477 -0.00140291 -0.00459421 0.000197809 0.000303864 0.0144335 -0.00368803 -0.00261868 -0.00979739 -0.0118298 -0.0153827 -0.00027551 -0.00161694 0.00412753 -0.000975187 0.0100053 -0.00168726 -0.00214657 -0.0118178 -0.00104201 -0.00177589 -0.00790812 0.00865556 4.98084e-05
internal_weight=0 813.377 191.346 622.031 406.276 5740 421.78 5318.22 1850.23 965.676 3467.99 131.891 205.911 765.175 884.557 753.493 520.588 3336.1 2559.49 776.609 2475.09 146.758 2328.33 2278.49 228.583 2049.91 1944.17 442.207 448.51 1501.96
internal_count=26413 3302 771 2531 1659 23111 1707 21404 7448 3879 13956 531 826 3071 3569 3043 2105 13425 10292 3133 9953 593 9360 9159 920 8239 7814 1776 1814 6038
is_linear=0
shrinkage=0.03


Tree=26
num_leaves=31
num_cat=0
split_feature=50 15 41 3 16 3 19 19 19 23 17 2 22 1 19 38 17 49 44 50 35 8 15 19 35 44 0 32 17 17
split_gain=35.4729 55.6247 36.3946 31.1194 28.059 27.713 27.4387 35.8104 35.3869 36.3832 27.6596 26.0444 26.4701 31.3847 25.0142 23.9652 28.6295 31.3913 28.5572 27.7554 27.9934 27.0691 25.0278 29.5683 32.8276 25.705 25.2626 24.8279 23.7743 23.3023
threshold=0.44761530997281512 0.32812634423097159 -1.4975743486444399 -0.50145276176343667 -0.66410198551214272 -0.77627467177735099 0.30612319358171752 0.26368666855394557 2.9716675559608592 -0.077588960387399333 2.2061090453105319 -0.7677399057809714 0.82391090068116457 0.93278129356592021 -0.48284452662603911 -0.3867929580631147 -1.0230547039155067 0.86911504814595664 0.65454515685697079 -0.32646869544610851 1.7896747883925854 -0.3621271931610332 -0.93234759668766098 -0.42861872769739046 1.2365191209354098 -0.39976898944014122 -0.59348460303001926 -0.87176253834925654 -1.2354890788451678 -0.55526454177735773
decision_type=2 2 2 2 2 2 2 2 2 2 2 2 2 2 2 2 2 2 2 2 2 2 2 2 2 2 2 2 2 2
left_child=5 2 -2 -4 -3 -1 7 11 9 -8 -11 -7 13 15 -14 28 17 -17 19 22 21 -21 -18 25 -25 26 -24 -19 -13 -5
right_child=1 4 3 29 -6 6 8 -9 -10 10 -12 12 14 -15 -16 16 18 27 -20 20 -22 -23 23 24 -26 -27 -28 -29 -30 -31
